0.549893331299527,-0.224758845629845,-0.169581593160474,0.742810853156824,-0.282250474860231,0.247409156783752,-0.744154851215646,0.565189253511165,0.320595868264251,0.0134827767882766,0.5969652117485,-0.0983075028241873,0.450150319763901,0.547836536638772,-0.0453885467439996,-0.311309158210381,0.193268214691025,0.332795903660814,-0.288338003595797,0.484541969983039,-0.451624524489905,0.442270844469685,0.248727113052621,0.30172297659638,-0.648541232457836,0.0399877754363638,-0.579984948613099,-0.442485897306009,-0.444030206309156,0.257217183227825,0.340421249470848,0.0876226343652765
-0.154972902299965,-0.224639945425988,0.362411652334666,-0.623028319607362,0.175699652377557,-0.397172462786494,0.758908912621624,-0.296009528278784,-0.503451368361781,-0.509736447641199,0.0171715171636256,0.351432190555462,-0.652355459950075,-0.0739661139403725,-0.26167320308036,-0.548367746561939,-0.390371310410718,-0.644581505735467,0.252510001837796,-0.166314518479083,0.0891428097458326,-0.498048053116285,0.09010979063348,0.269624798333168,0.536382808356213,-0.530661931223712,0.253851305092259,0.444119562760251,0.578971334784051,-0.351141029022712,0.153651348802878,0.394355327758622
