0.010210582996459,0.040362771578857,0.580501554417267,0.238492962496927,-0.247342844576232,-0.26480293397844,0.160479209077198,-0.229645929085067,-0.198416300046375,-0.295433338603881,0.0729324085246992,0.498381438403467,0.324707879059309,-0.271117166339264,-0.485205167508146,-0.13388271240418,0.0645126679185241,-0.397000354603528,-0.287275699833122,0.38379607292516,0.534196202237734,0.0880338266605485,-0.0838462190966746,0.122238360318956,-0.347463982438167,-0.328175574659168,-0.490393523503771,0.0515510929430956,-0.551902936415457,-0.0522936928331321,-0.156075896370909,-0.0735210409201384
-0.56311625925948,0.226037049769647,-0.466971584237704,-0.226851723208996,0.495061034476528,0.291287744402069,-0.39653973253433,-0.499366334894589,-0.202132230156936,0.367235668718731,0.421905157738947,0.629733567349421,0.0584926006701062,-0.234611318637269,-0.155925441177584,0.00991981195273455,-0.508160108897794,0.103884680690276,-0.287941559232877,-0.139518730584631,-0.503781738165395,0.314247202945778,-0.420932562354108,0.248304646081175,-0.00595743785312193,0.150273262401653,0.0696859738178956,0.297070969501153,0.387663478790959,-0.151401742718195,0.43520406334024,0.137777396151452
-0.135678774197485,0.0238123503999398,-0.226771536331505,0.241351989372252,-0.221836615349468,-0.431972662246123,0.215292772331022,-0.205202074808792,0.00491270407313222,0.556895029445782,0.50324640585624,-0.346954545055903,0.388002016460392,0.310862239927558,-0.321395165541062,0.588447172714521,-0.103562169348172,-0.233840870840071,0.0849462284062634,-0.558630000239367,-0.297240439302433,-0.492202786118635,0.341567017739237,0.292851639655418,0.149210592805418,-0.113398096945653,0.357076842081095,-0.281566884601192,0.130835153067824,-0.326638030372174,0.499240596052396,-0.139750615788177
0.314586119405074,0.473339211295602,0.342264460511297,0.236633216719064,0.393668360806564,-0.19909904460071,-0.156050809950516,-0.454990774694238,0.246080919013204,0.398741531160809,-0.171026660932062,-0.432584560166583,-0.0347702625208036,-0.149404307129795,0.430600116486963,0.256903268697159,-0.269052541416955,0.277804897061123,0.0829218304002934,0.25970100436766,-0.184354551680615,-0.272802898509348,0.45170125327654,-0.194575528731802,-0.436836181936694,0.420014832625788,-0.430654962638757,-0.183097001993401,0.35084294300508,-0.0805450404227862,-0.416655684044363,0.132655184349408
0.0851222423976891,-0.192588453621783,-0.335197051009171,0.0690878706458414,-0.084521787548835,-0.471468821768905,-0.00485871899600787,-0.599315805473881,0.519622362871858,0.0330637673625369,0.347833617867175,0.0863641556487162,-0.044254810351756,-0.641677543118259,0.117058099631159,-0.32339602715402,-0.533489215901249,0.288878445579381,0.606213732105286,0.552752105226952,0.213270467220574,-0.270220623070341,-0.55816538605663,0.424354197002086,0.347884139104773,-0.130128240267393,-0.412397184419313,-0.254442832854639,0.238241561539584,-0.541364289415166,0.385977032704847,0.00550765692493908
-0.285684607838636,-0.168499112195924,0.129384043409289,0.233452731159773,0.476962215120983,-0.0638124353638485,0.334764312356181,-0.104445954460168,-0.372369538016453,-0.115867718483998,0.274060520645211,0.5355814849577,-0.046625983804338,-0.324479779847621,-0.586467212698473,-0.493035866557002,0.426699621591254,-0.369156705600064,0.033096951532591,0.0568750229757652,0.0597518612311488,0.0653794840297974,-0.50503952435937,-0.444522134603163,0.101961322588614,-0.235463666303715,0.11473327279996,-0.208899039254374,-0.421783562173635,0.478300618739413,0.373720587049031,-0.227613905280642
0.321650292979228,0.409239200135328,-0.638417586826301,-0.0159304346320443,-0.0554927383925961,0.232135228215768,-0.141578711148682,0.0571391688376148,-0.0214624063330747,-0.521268620912858,0.368701762120621,0.274327831291934,0.4877551055817,-0.53499243794669,0.043708984579929,0.369612279820323,-0.303282102204515,-0.27683124012113,0.401751397990515,0.420196904214362,0.0309476313607385,0.379181374711292,-0.544269389043255,0.220285139133302,0.196172923176769,-0.441940892634303,0.13297026389001,-0.236680720836435,0.0324877792050698,0.0505081141166525,0.313219049419396,-0.0030127810659362
-0.28396112389538,0.150420484338688,-0.558163082989754,0.379939276626558,0.305896298450746,0.0638674016786999,-0.212754537712111,-0.513728095627963,0.12807721544897,-0.0879268462555455,-0.31764494786592,-0.219057856085878,-0.461038301901845,-0.10883340967464,-0.0613685970256999,0.495656251794731,-0.358588351127138,0.47692907399635,0.00278467933560027,0.11406212656036,-0.424462651629056,-0.362282786857375,-0.493684345560299,-0.434151204506497,-0.158898575319117,-0.474306712314218,0.517967714612099,-0.564328484186299,-0.57461607438924,0.269021497055356,-0.318405183543199,0.472148499202336
0.109045649214562,0.429201444590689,-0.00643718344053464,-0.410207300761436,0.0322401026934131,0.276685832411464,-0.0310762296236608,-0.0758622135291285,0.0758392309588674,0.414895259782092,-0.115603033760389,-0.173845918359688,0.102892300613674,0.333137206935022,0.191869388353022,0.406254631381612,-0.355626729330375,0.498917116871095,-0.0654516389624087,-0.373367800105419,0.0401898477191554,0.0201559021059539,-0.141335387079284,0.127374127777806,0.335514221040527,0.386159987251503,0.364730421493528,0.346626544397051,0.29285692283169,0.165551812035404,-0.140069879937727,-0.510679136698223
0.439000143285333,-0.301265274900417,-0.403206667216387,-0.443108784842014,0.389681228029259,-0.292905811673822,0.378250613218301,-0.212912432364213,0.206341472433169,-0.458431918981324,-0.29946910846654,0.373151353850779,-0.48743366089026,-0.473580827544878,0.15067180606486,-0.381425608250566,0.0593932121459341,-0.2896896341528,0.536797776681368,-0.441797871166431,-0.300896645111853,-0.3965051170103,0.433537251379743,0.231325894728577,-0.101449160544921,-0.136804756917024,-0.565483218728722,0.175260116867517,-0.236941505269521,0.140560961405893,-0.24231455436002,-0.420104289970654
-0.46145433705957,0.19037014157729,-0.0574041531310568,0.455048327516793,-0.183841823291165,-0.000561646676281985,-0.446160603761394,0.501505095251719,0.071151998630221,0.229371369912655,0.54515145659096,-0.578632268556596,0.299927737240991,-0.588294096920537,0.451959106744831,0.166810008177978,0.445378127510056,-0.497068610066988,0.0572552795227051,-0.493828120303616,0.436738422095151,0.394289660418416,0.527746963046018,-0.381547572205,-0.131415586828404,0.471882300237163,0.533055720564886,-0.190730433668221,0.287567180680932,-0.571065059015142,-0.434977539159238,0.506545173142523
0.503763746453014,0.317121374055125,-0.093650377918842,-0.338008418533572,-0.278423834789983,0.231128378733638,0.0354687150276121,0.339241294380641,0.132550860320629,0.0284237330273054,0.243601205517973,0.533286009044097,-0.509790842011801,0.512500730384782,-0.0672112744348521,-0.00226644889950191,-0.472820279223652,0.559900856854307,-0.220014094944248,-0.373240114323916,-0.0497496574261999,0.110737682015101,0.349390700188106,0.241459931501414,0.145570260753602,0.00544700781059495,-0.281438950029254,-0.233225670766095,-0.37134291393636,0.267435770857112,-0.444509090404547,-0.518320043972098
-0.398287900821329,0.57799332665874,-0.163107955052078,0.39478851696177,-0.191162388261469,0.506457730007729,0.145501939888653,0.0846762066119634,-0.265553504851257,0.445016906234842,-0.277695200979683,0.567017907513108,-0.322057855314361,-0.275074813943658,-0.438419139378358,-0.17346260436717,0.275654454567022,0.309458613348384,0.4844514995952,-0.38328460337974,-0.131694847271913,0.336974731201853,0.448608992931387,-0.295223822203943,-0.548431510693405,-0.0663021905843372,-0.278136191759131,-0.179243176435297,-0.244646309417307,0.0811423663353303,0.311334194445612,0.386995432996151
0.0699974902019998,0.0856097725100055,-0.187429563713741,0.108363564821594,-0.442223616858835,-0.0604069309864574,-0.115341540568887,0.386438856649515,-0.498365124605319,0.343581675294622,0.127580546329969,0.0324671600369012,0.0860481932546676,0.540580671174146,-0.165070366134198,-0.46753522576734,-0.269921526868694,0.364013060152862,0.0849350943646976,-0.181911528427973,0.145805516299095,0.25276939237305,0.299615690461026,0.112088852892163,0.406345303769956,0.460906368744081,0.452382977277115,-0.362148914022785,-0.212803918269816,0.417835175164041,-0.347746109662539,0.16380745639878
-0.541363403365584,-0.364998249602666,-0.273659528364919,-0.141023202349273,0.228311522700574,-0.151438249163384,0.478913908803578,-0.346585482856811,-0.148079152665618,0.18199751682876,0.348159320457094,0.367657690280584,0.266850970748842,-0.251888638821255,-0.539326944703346,0.0887578934029998,0.23668631368344,-0.13421432330312,-0.545589883622832,-0.547940849234625,-0.427966220308236,0.3635246571575,0.317483161038392,0.137318884682663,0.569173534879136,0.160212820740787,-0.541138470137376,-0.381416006312123,-0.283247430766875,-0.00996864583972536,-0.171872347839069,-0.446099198270431
-0.304747810445559,0.25730886709798,0.00413292005644882,0.29453337468602,-0.386897068414842,0.11627863716447,0.347792850364221,-0.407199211216685,-0.11676677983246,0.0885659640437251,-0.288871957909304,0.223931838848299,-0.26741618825558,-0.177759922030664,-0.471615059112304,-0.337906780081005,0.463482800837083,-0.0402228373796453,-0.427147863414342,0.0954410833789565,0.0401768230640094,-0.221938423999555,-0.451408311798385,-0.258254240198926,-0.405500244889283,-0.564031673984711,-0.178236151272011,0.368401863462805,0.275544412628075,-0.230420110019434,0.471840747232367,0.525489448926874
-0.510692001721771,0.409905152061765,-0.106507115780914,-0.154176571244537,0.326987253216673,0.514076170208877,-0.197510979826117,0.265412698319367,-0.383908292311485,0.00852137616007265,-0.129258720911862,0.148766116109234,-0.38609168352192,0.253624591943595,0.248075356813343,0.0336132410707025,0.424853237108986,0.16967309482291,0.108197967568472,0.387108607900169,0.381969057912821,-0.103809473100666,-0.289087394798316,-0.0131907176028773,-0.0916533874199267,0.335556987625037,0.54423829420847,0.177611554121144,0.313561189094588,-0.0853813044740618,-0.0487198783312022,0.350011793900277
0.333906964701009,0.404008526282359,0.395189645458711,0.554639034852014,0.0858759034455689,0.525129714569871,0.190042106044088,-0.0566373962329613,0.419892838979887,0.442964982118429,0.387418948880164,-0.190591367900023,-0.0256614860809092,-0.401098929777636,0.303725171743082,-0.420649015767031,-0.360510546797727,0.474568792500318,0.106100517000612,-0.335888336268192,0.334957136307768,0.144746829322974,0.2132845823426,0.0862899366288427,0.218896713164089,-0.223923231393707,-0.208424119467257,-0.0369007722141044,0.0740852368245107,0.19065674729332,0.10492175316,-0.0780310516301985
-0.091396782852217,-0.128941983705136,0.583382557318909,-0.333535923340962,-0.278502516086148,-0.541673976117388,0.539631146543047,0.257108980390619,-0.0272914912961606,-0.121645086537666,-0.138105803213791,-0.430902683420747,-0.353531227523405,-0.403050572491402,0.420267834280005,0.494375868730334,0.00168460483865813,-0.528339861320766,-0.119364862744729,-0.374864599772021,0.493197219758484,-0.443453350060619,-0.192822705993047,-0.303514974524559,0.130796803419048,0.169500346953995,0.316744977663135,-0.27361848000035,-0.208512354001107,-0.459945092548776,-0.060113283757418,-0.529892327564212
-0.0876911891604011,-0.222099107094335,-0.0657292049201153,-0.297985834510111,-0.37077954154406,0.507902874441077,0.321802691411321,0.574377062064197,0.520532620890686,-0.137046349973292,0.0511703253942573,0.395011702332473,-0.0259571836417955,-0.500102473103852,-0.543572098078543,-0.353028574732028,-0.139387216864541,-0.522381482577079,-0.225521764686737,0.476815419959548,0.149854235971625,-0.175162602912494,0.481860867745775,0.0497141027247123,-0.273609505942049,-0.536650432895003,-0.34074568567733,0.431598331840478,0.260911067710421,-0.0673948921321046,0.562424556768681,0.507778042805427
0.102843780025187,0.415341811454611,-0.0381239202767766,0.402463035562381,-0.138705376851601,-0.460830700242931,-0.323545793735761,0.211997912514074,0.447224939216209,0.533467358458106,-0.0113208886649337,0.247527559627973,0.0963002887352625,0.275246661286475,-0.196062261671604,-0.442612277754972,-0.323256281708121,0.144110032811521,-0.213940042779012,-0.222520973937964,-0.459833299334345,0.392521711236648,0.537171289061376,0.166579530210518,0.480906395159221,0.113866435566376,-0.199549278371764,-0.570195214568421,0.351427073824733,0.222795179455925,0.150895739145524,0.162256692377502
0.00400635831333416,0.534808922593291,0.189992302254465,0.336257356346094,-0.432184127096467,0.159336004451398,0.208909267843725,-0.386468635783643,-0.0454211451815559,-0.142766907857577,0.418890576513306,-0.366213866036244,0.109856198585123,-0.388687371857498,0.0686011614011027,0.491699169717542,0.523796753344219,-0.652307399793975,0.45291486580382,0.278599010424019,0.28831195253241,0.281940461803966,-0.268961012126819,-0.188903717369279,0.509000950566216,0.480175011392631,-0.129361435834242,-0.310731979865406,0.491607925556435,0.181897470196746,0.0424463312437968,-0.114104168020894
0.288113796124478,-0.213584068904031,-0.563717065707665,-0.111517358463257,-0.440315435108819,0.347568895757195,-0.129369191695451,0.459424568746785,0.337959009853692,0.245422178228429,-0.238382013352737,0.476474824410548,0.309721279036352,0.262869641498681,0.0230134210431214,-0.113971311101725,-0.520847147962035,0.0801548058856175,0.0482341608265146,0.137373068124441,-0.130897278319024,-0.387495029251246,-0.463698696210924,-0.103297511518558,-0.382816299230788,-0.241481927820734,-0.0724241206635165,-0.248761208271762,0.36253010474008,-0.0906434816739003,0.020377235584611,-0.438943943034346
0.513333070946656,0.246164377709995,0.246724769483966,-0.0323725237553243,-0.080212264906566,0.350861072701518,0.00961250769641205,-0.533581674047388,0.0676458939940281,-0.489803135297399,-0.0571676969882339,-0.138899717743843,0.198772847101051,0.127686312552276,-0.191408202419739,0.42831829475121,-0.23357950275316,0.16062299016164,-0.541972970656462,0.358601448173915,-0.151265585879121,-0.00585729589230893,0.44733714914034,0.112222653427019,0.384845528627918,0.505606631076333,0.0809060877883827,0.344889777386221,-0.51487064756107,-0.318105777218492,0.196974659517565,-0.0683970693915242
-0.517027210501003,0.282126000028938,-0.309387129130996,-0.00176548781168224,-0.199716877601613,-0.28436238013059,-0.256526080279109,-0.430818772297071,-0.473734619946208,0.0633564864634349,0.33278129656738,0.487615212758426,0.288991765275026,0.0945111905922247,0.206259894074459,-0.19982808008375,0.326465286863602,-0.149660807779768,-0.249535459324247,0.00344181204006168,-0.193786035135003,-0.0164506998638451,-0.13441709130096,0.30786854843964,-0.502829152336685,-0.448093314899686,0.127255593368025,0.466434148543586,0.237559408612025,-0.252322106191658,-0.367706640403891,-0.398008930373513
0.115029490550395,0.118127176827784,0.0578772790385149,-0.407462161233493,0.151010024601343,0.290494207276534,0.563707239966332,-0.250330707471501,-0.208091662239801,-0.137549099816996,0.472131079488177,0.565659603733227,-0.0778702385962479,-0.143281216906933,-0.211720209206257,0.371568034646055,-0.230047029668873,0.0308592550866437,0.143221966923454,-0.163457328901462,-0.409848797430008,0.198972095698199,0.176154876515523,-0.557094625705821,0.548095114679959,0.145111753093931,0.166657608531966,-0.421256772547054,-0.504957840173437,0.216341510298844,-0.0918343893356337,-0.32815813496862
0.484653016207265,0.421128394311199,-0.12460600229865,-0.154163416913546,-0.346518519555511,-0.0575830357382482,-0.430098584147285,-0.164599411074511,0.226217402115458,0.188839642720041,-0.318501808532743,0.33026339663994,0.146951336518276,-0.382668901366521,0.39141291343291,0.212941310841372,0.00761080150333461,0.149739098561273,-0.516037025684027,-0.353217713671523,0.312106673718737,0.0918078266648337,0.148271335858277,-0.538936084990645,-0.139007249356923,-0.419498973759818,0.0167673950116123,-0.110798761727902,0.0621548206585717,-0.519046920527204,-0.112519261668178,-0.247201257263925
-0.475938137621654,-0.175818351134555,0.564064919028939,0.165324808496991,0.0860785791009448,-0.403074311198106,-0.515379265818338,-0.0320617260081582,0.0546847905124467,0.264223659729082,-0.312261650011288,0.159370743432703,-0.579737476610701,0.439191029877973,-0.450033348279876,-0.180324521200094,0.344598690022305,0.163831518688602,0.201174502821833,0.202476086403986,-0.478999030185993,0.295739606018125,-0.408325913794624,-0.11068449859327,-0.506793924085443,-0.296328861606463,-0.494885782728003,-0.051247209834005,0.443941501580149,-0.173606144686219,-0.132781598199999,0.435625320236837
-0.0205405662509573,0.100785955974872,-0.0172009958317261,0.170753799970937,-0.287281140706876,0.489498003606957,0.412349788524753,-0.472215641688954,-0.244944222377389,-0.109488700177072,0.379639485715208,-0.440751034948151,0.457142504025231,-0.292980644387141,0.201319835337972,-0.232464755332119,0.0406047930083695,-0.512453268686426,-0.490198427222661,-0.270621966859107,0.190023542428508,-0.315607875216361,-0.27000451108246,-0.0459692529667937,0.0987908539432023,-0.54966946541538,0.550968159551461,-0.51407316797608,0.0922937482826742,-0.00656059964652376,0.222537859718345,0.375953900605735
0.0787389104634227,0.137173503935959,0.517626705216675,-0.0963783535498036,-0.153106295548694,-0.4012728783931,0.0934745584313003,-0.400961350951582,-0.448346193129402,-0.359317412304861,-0.379048264523522,-0.0217920780839172,-0.228389500538229,-0.42903400455415,-0.329756588482798,-0.458766709376207,0.0911561942708459,0.405102979757637,0.526451845164775,0.235972594381294,0.173628622622428,-0.437511064576396,0.301220052487519,0.148062093155963,0.447334882411566,-0.187104686612874,-0.569447536881929,-0.577351608047568,-0.469255844093758,0.382027884305635,-0.231288994753502,0.505756745536605
0.179106689361221,0.474151733730429,0.465216778474223,0.188121994285822,-0.409875718249097,-0.466422752134301,-0.22350819669971,0.0887003481386654,0.104600742809342,0.10380998169453,-0.273261908699746,0.0141645882914745,0.411680371645372,-0.381629320549698,0.520061659434014,-0.522018813607798,0.532563695410484,-0.0452712146645935,-0.394811578979289,-0.146340604588,-0.170891267615445,-0.340928050110131,0.194198750887116,0.279079331462523,-0.271769347517189,0.302538378542404,-0.0326955961455082,0.400165485418466,0.159377239715355,0.410300697785494,0.0809579335642059,0.0182037648611061
0.0820272192690194,0.453293664710139,-0.244428840021723,-0.285632173041546,-0.445082625776792,-0.305457774907488,-0.349260301125796,-0.0342032138515323,0.220301324224601,-0.056415441817681,0.324934170237394,-0.286569821622265,-0.0232363302421912,-0.0948291462969178,-0.455740489791832,0.0473816069259589,0.444017189879541,-0.222865993567621,0.207672813684476,-0.0422986917270246,-0.437853146094915,0.388047611443926,-0.495560837547419,-0.442351802339752,-0.141349692940934,0.357284231843694,-0.106224560220284,-0.0343233371186744,0.0777605557382239,-0.514071385712691,0.348714561062083,-0.0108608283047518
