0.362155420496035,-0.240707927473988,-0.551068885660281,0.500961918874863,0.453452005093886,0.416182083841504,-0.158508292323651,-0.281610493624787,0.277958285825695,0.26596640405541,-0.529965387300127,-0.339232974309469,0.433558503356507,0.0837688839087134,0.0712099486311729,-0.0173354882208213,-0.151871834571722,0.327294677916337,0.53309953654965,0.377643269895767,0.373317586604408,0.121078949453963,-0.444035856560608,0.212182738825833,-0.0395244785938787,0.161554697256531,0.219948091086737,-0.17635705723705,-0.375474408436742,0.0827559902746114,0.425320689768352,-0.143406394964529
0.181585821921974,-0.174132230334574,0.572901281596372,-0.112866731649663,0.374614997729232,-0.286456006846372,0.170647345169835,-0.0427728405546508,0.210286386195494,-0.56766529389256,-0.0675296895742619,-0.427009519718956,0.438182647692662,-0.0552122532087742,-0.574370408128276,0.435254019990347,0.046731531759026,-0.208555413962063,-0.546811629517955,0.131278412600195,0.139392110899615,-0.0143054575089141,0.297214148797185,0.144040978434699,-0.258317343936062,-0.555079714275018,-0.0995077338323542,0.0495321179369247,0.522772220351747,-0.217670550228055,0.154738048311098,-0.348635493996378
0.156815222576831,0.38599362373341,0.288242875518785,0.017630613793994,0.171368457916763,0.623555215382075,-0.0842273042534847,0.542627708523148,0.0010585466321099,-0.511617265023335,0.192316020045086,-0.0125312160788929,-0.436276484525917,-0.285500122900007,-0.169456040344685,-0.139624636846222,-0.200503407261554,0.110476903204988,0.454033654532879,-0.295048782321996,0.234929454952619,0.221451305323044,0.0850859728012442,0.465068108537611,0.30678583042582,-0.288331743875813,0.252106602201979,0.0383886075955294,-0.0771921659908121,-0.161516954426293,-0.356051604009851,0.303948697407041
0.351203143866638,0.243056662273442,0.560815126924731,0.369499389763866,0.340487477051899,-0.275737844333828,-0.409113775754937,-0.00308100704298291,-0.297917788778428,0.164975119648799,0.291849471082472,0.258056097334017,-0.0577444148089884,0.357851089048888,-0.166695094022227,-0.218747136349102,0.056828238018658,0.134612281773399,0.144974970258714,-0.325746916042051,0.536083773552033,0.30411920187222,0.0247946391484421,-0.0521416886686699,0.332362628584748,-0.293880589136737,0.521967478775997,-0.0172203784184631,-0.35861763422493,0.522165039512107,0.250235608809194,-0.544402260418574
0.134936386378962,-0.212238459710693,-0.28717643646174,-0.331988287640299,0.0813729291752032,-0.16283019517491,0.175832744174406,-0.114790116744849,-0.0556907778776199,-0.143417503834805,-0.491538063818648,-0.0472245564778379,-0.28598255951794,-0.654373115631073,0.569070496748018,-0.356443571174627,-0.360195338189582,-0.23243097329208,-0.446786311923113,-0.239325181929265,0.000568260793798789,0.0525931966923122,-0.141326309961244,-0.56624793127067,-0.14974476733864,-0.259761258507293,0.523456563262548,0.229432867795404,-0.160050876842304,-0.315895168234788,-0.097275776999417,-0.301050177597169
-0.464409320769977,0.0660859479729083,0.475185697405408,-0.239452253776707,0.379025365299788,-0.346451549772033,0.308686271552795,0.200588282117076,-0.149469245502412,0.191607095422722,-0.114625740566801,0.221850106441201,-0.0140101272742935,-0.544593255314431,0.407595497038461,0.134429142112015,0.203334865133181,-0.377124930708549,0.0819535340102246,-0.113627591578842,-0.401642696780891,0.262826974880014,-0.0380785489318427,-0.241630765309509,0.25716088704161,0.592784487047766,0.144490130555344,0.509968259297405,-0.107356533904709,0.386095802092331,0.384915935329407,-0.347441275392903
-0.560748702892132,0.317959524206519,0.348571916305073,0.247008270361248,-0.134303613232371,0.484853606978826,-0.274622209313268,0.197168134673014,0.263111679769441,0.642517035114217,-0.602921795671761,0.257961438495261,0.2264495705975,-0.175788028015213,0.355936394354226,0.42335128082093,0.430862246122482,-0.517967086835723,0.0357896740974347,-0.467716943444549,-0.446711351704529,-0.000893531305665223,0.484562134971709,-0.39734066154466,-0.0757976673290342,0.424824772806475,0.0750411985678913,-0.481114247726535,-0.323693882753099,-0.296370625662571,-0.395769003905204,-0.286026750488606
-0.381014469732506,0.224823649059188,-0.0187239969915988,0.167241661548107,-0.126345077943403,0.226889160373592,0.0728718424500154,0.483046945623246,0.239521952118856,-0.228138756554791,0.527448126094099,-0.49967005560128,-0.141135777348329,-0.148255585528436,-0.346972949264941,-0.35431758725045,-0.393413626687205,0.281162732590613,-0.22849189187136,-0.130097782995766,0.0502305434839243,0.00241171834386836,-0.353217489599784,0.0715921626718614,-0.0159416588146176,-0.0492430707532497,0.443911616171608,-0.336866274610003,-0.293836374666871,-0.166274407717607,-0.208852979064663,-0.233647560754656
-0.484480099688634,0.172700779241535,-0.409305733058425,0.360433406415165,-0.420472745027443,-0.148674206456512,-0.52509865771453,-0.55216568693302,-0.0414186599579244,0.593440416236226,0.339090190225871,0.0662608485728388,-0.475847846738093,-0.266894504206133,0.155875873606679,-0.0197004779891469,0.554772660697661,0.441340709419564,-0.285645135067285,0.0942963736733532,0.172842815966074,-0.365487821692306,-0.211368172788285,-0.260777511833724,0.0214985740866636,0.485305021425027,-0.143471050037738,0.19743351324784,0.00234006555680346,-0.30802936691217,-0.368785030311019,-0.00512232036670355
-0.273667981019633,0.54948580380546,-0.0350557993552428,0.268802544645736,-0.128864634911647,0.456237102512465,0.319860879729028,-0.338340505354173,0.417659826784134,-0.416136392577454,0.202097503778904,0.333956571243377,0.472864943555939,0.240554898536251,0.265860230263985,0.255361951928956,-0.530166579208731,0.511709835371162,0.462266418377413,0.429273386849339,-0.518900104993054,0.172005836336527,0.392778132658336,-0.0736845265386303,-0.317899432939848,-0.307911136482923,-0.427187017781567,0.0618986719361278,0.289246500176006,0.542235853169146,0.478741509716518,-0.198391356523428
-0.51974749928124,-0.386297006066863,0.0354616233014059,0.538119288309316,-0.0833102661375209,0.30082293930301,-0.091755449827724,-0.35697991042419,-0.443672724641193,0.54601500791714,-0.295402533102431,0.282178400834526,0.246679442599207,-0.488381927781397,-0.557439347165253,0.0143271777212629,0.191883097553057,0.375303119849767,0.0930912066416761,-0.358814559972041,-0.342121817704202,0.58071127777847,-0.316533300317105,0.0782838135101096,-0.506310569396986,-0.146651152375277,-0.493175227271123,0.438027957293375,0.276383590267509,-0.207317656886549,0.274265635767172,-0.325586191839209
0.0330612477754939,0.382343748034113,0.125223030521194,0.3849595899277,-0.152204810606284,0.199021247989582,0.0658000757256548,0.0839206903529389,-0.243685873398929,-0.542985040954193,0.267557879371298,-0.14095383592984,-0.241525721254019,0.475490870134009,0.22216740995144,0.426535095327732,0.167815255741092,0.012943805450099,-0.187465633063305,-0.298308603126289,-0.4580366857897,0.431136952449704,0.106587074524212,-0.234344535205657,-0.247657673239848,0.284045900810278,-0.274202714410432,-0.436658052505724,0.333326423810533,0.42745656619408,-0.0772313551119901,-0.164653354218547
-0.282156119434617,0.336216900339142,0.102704444328517,0.00398599444300434,0.24373725552362,-0.171386538741551,0.182793641399013,0.245984056477075,-0.251583031746073,0.105511023000642,0.581488253035914,-0.34930823895872,0.142104820305565,-0.386332250913755,-0.163768684185134,-0.0238016986829194,0.175401695591196,0.0102512119204144,0.498488076167937,0.594743505275904,-0.107096011182515,0.480955493798423,0.333885346822634,0.0436365775136817,0.447144966825051,-0.036227027025762,-0.320056685111886,-0.536178410395198,0.292928083764745,-0.0543774667745302,0.461557949684602,-0.250192342908896
-0.57767141929764,0.154326423581947,0.555152730814277,-0.261228373098539,-0.242683985381002,-0.0216160416985901,0.0938515536427035,0.40508599717643,0.317616540446325,-0.498158717917383,-0.260621286323539,-0.132580694832076,0.259525072689221,-0.437438701041822,-0.0916605342044288,-0.157098971097367,0.485570689688719,-0.346721914726546,-0.0747269356133815,0.300987779082317,0.524011423161048,-0.226308069788294,-0.122432390711711,-0.122882649479612,0.0625354115719217,-0.576633570089411,-0.436325899970041,0.420065239212018,0.436504112967699,0.11636782436693,-0.28886932063138,0.486641251636255
0.360265878421631,-0.476752944020963,0.491422954979796,0.142309686455942,-0.305534452674939,0.200871157072404,0.349772749088529,-0.603604019205779,-0.0685069913635886,0.0629312640021594,-0.299059199058297,0.498457193479694,0.397397237156783,-0.507057678267565,0.261265424903208,-0.430723167298338,0.489007697251804,-0.183591801819332,0.55809976398377,-0.373059884864029,-0.0194953483276899,-0.207465023982504,-0.339906984009372,0.0150764699535436,-0.503876089536369,0.00895757984296227,-0.204358170054262,-0.0389996940676648,-0.405967076969672,-0.0161846531108768,0.144097672320996,-0.408580344876865
0.336693252628549,-0.0948971340733857,-0.392572870785052,0.33133153450165,0.56632074058068,0.263260283225402,-0.286067129034601,0.561230547623133,-0.346550826062852,-0.412588272689534,0.200285171528712,0.459769219255368,0.150925733659292,0.185565746237813,-0.0732398055126309,-0.0666215762267147,-0.522214820784862,-0.155723329923104,0.486992043455252,0.173294995941923,-0.144753207928236,0.345639663257538,0.428995282579409,-0.278009876664648,0.387492008628227,-0.418877575732251,-0.411363626164877,-0.488323253876359,0.14163124991722,-0.186136782927914,-0.39091922662514,0.0252065045328547
-0.438882549274975,0.288092142155445,-0.385481971722613,-0.00716694376700824,0.348106365951873,-0.0164547616061078,-0.0224401299964669,0.147374550717235,0.161764553636017,-0.0953940198117288,0.532824760113708,-0.233504652661441,0.248146085792924,0.157438676938261,0.489199800003483,-0.127248909005222,0.1442249002319,0.64660129723797,-0.215421278340355,-0.245860564079327,-0.239580660597296,-0.286451044173035,-0.282857479271446,0.421757068447158,-0.521378131616127,-0.069222099753381,0.114869635860493,0.167480863984353,0.363567806162778,0.474883601809776,0.347829300384733,0.0530535939908541
-0.00158162888054287,-0.0336311678789348,-0.289977626225436,-0.455196876587032,0.414101572998369,-0.0652136105238232,0.0948516863995125,0.502011630662644,-0.155257656825217,-0.329061592387069,0.456168281477857,-0.491296786890368,0.3969725650664,0.312384794627612,-0.482351810075802,-0.340656736153495,0.0120730402860268,-0.122968792267812,0.266517019942066,-0.0615420966661651,-0.208863963217877,-0.518123102502194,-0.0401778002471566,-0.262653956383803,0.187560426933342,0.0875635796863893,0.443116525658517,-0.168922085920065,0.325671551905854,-0.499560235194127,0.0881515967010513,-0.431318246217011
0.415143017404146,-0.134417566282867,-0.430957090479444,0.0118277528436509,-0.257259972678044,0.128335302707493,-0.251992613240924,0.376403489983752,-0.504567317274533,0.394808344683012,0.366515169912386,-0.142939653574974,-0.227543934057914,-0.518781070511003,0.00234037864500096,-0.318969005550289,0.499821926410064,-0.273135171080885,-0.143354216188084,-0.00584703270670479,-0.203945313054503,-0.377171479667541,-0.0481393819150104,-0.280444432186792,-0.594651372873707,0.426181227321354,0.0371301436464059,-0.42963879661665,0.0225704716630991,0.45526885001227,-0.117900825973607,0.422752191353762
-0.0537466383963271,0.464682351102729,-0.0941209230344288,0.0660607618167626,0.11134306932093,0.471310768466314,0.537746094558839,-0.234696658708429,-0.520865732423815,-0.28035219192745,0.0225628823497751,-0.014918462235777,0.405912520191683,0.0439126530347571,0.0276265508344457,0.0717107232837779,-0.161235951528967,0.158219194324334,-0.372094444580578,-0.296395828641394,0.523040706432118,0.26515613527754,0.326509014359738,0.516547113002689,0.120752090960086,0.0970632513900989,-0.312265519492402,0.453696841193024,0.478042832417115,0.00724017329324714,-0.479607855181412,-0.0776557198882135
-0.248197611628767,0.475053884835273,-0.311710215636413,-0.39340069275653,0.132085935541825,-0.0842410446647918,0.427843432252691,-0.182652792552601,0.256113065863433,0.31922901526929,-0.404137634673144,0.163086653639496,-0.286027695326255,-0.491919731484879,0.0208598512564473,-0.300225465913454,0.0393774789487713,0.347145481372684,0.495320411534846,0.0771464038062359,-0.401108885802347,0.457629874665619,-0.27832236044052,0.677509912325769,0.124866156254691,0.517008549554612,0.0206149702187163,-0.0782136536718456,-0.526072067666224,0.154143928794901,0.418724960534235,0.39825226058791
-0.462683484446382,-0.153994580747427,-0.397342369298407,0.213919979205185,0.497365020120423,0.456663440896755,0.455099003500599,0.0210737733226125,0.472105743929221,-0.073874819340924,-0.13247927994636,-0.203983160958278,-0.156774255096542,-0.0392430930740303,-0.0390636741057145,0.210108832316758,-0.107153142096953,0.36587974240164,0.0303476753442456,-0.555042202699399,0.558076812635591,0.218348216941107,0.230011735411984,0.133762116277567,-0.372285412356009,-0.214179453382196,-0.444478520362818,-0.205913852369811,0.277312300378546,0.290774589622797,0.0511493044367198,-0.527851508908576
-0.416946416581498,0.294394676756577,-0.336896525197063,0.0913262987114766,0.00208864321230585,0.429699020221875,0.328356139071692,0.340158717670951,-0.269559877168876,-0.169934861848144,-0.618090623562851,0.315659516386411,-0.104775400086766,-0.313306312495069,0.343029375054808,-0.0549147370722547,-0.15434214270569,-0.284068776835995,-0.320694870659224,-0.336890313137216,0.466724952461932,0.0281152882997011,0.113096126724458,-0.266811414410202,0.388594879820894,0.273477766452193,-0.44899519991865,-0.291524202709136,-0.477770283177261,-0.23119421706098,-0.546701933077555,-0.264209695604225
-0.457012321874505,-0.208536578923041,0.0754945690690787,-0.337813759946675,0.399773330142372,0.486641489962297,0.487705548264576,-0.127975914215023,-0.126997611825558,-0.290114587419977,0.436242282062556,0.138125178364884,-0.217413364723727,0.132188473709346,-0.496576792367862,-0.298456464425736,0.47971037169352,-0.35431581856241,0.219476613650047,-0.170698393989144,-0.0315525951794225,0.481539585496503,0.156720919026301,0.470237382676411,-0.23553636556703,0.202646873804312,0.33678182612683,-0.340033274023963,0.356046733014354,0.0109366589579824,0.0846055655185458,0.317855130303537
-0.346615914676253,-0.132534611812585,-0.262750547233894,0.208066518601544,0.108138460975946,-0.18628472242871,-0.0295673454697962,-0.536736247984848,-0.197145289633848,-0.0561305462958597,-0.548463626406781,0.1305152423914,0.0757080843515074,-0.085745152735232,-0.33641650140116,0.0217728793983823,-0.398457143528092,-0.187577634342997,0.0433728308685346,0.168881428740382,0.272566524102798,0.0206975627790903,0.436316642348745,0.136674827938769,-0.284363410399945,-0.20681565592539,0.447260416367024,0.379570290662647,0.326464839379197,0.506960269811652,0.545314221182646,-0.462556699430863
-0.131026476849115,0.168492479622871,-0.559024870864806,-0.00481488036288804,-0.257843782856481,0.536005476925409,0.152566530510367,0.414728227159273,-0.0582569520277772,0.484746637008391,0.318880834898714,0.217157124882995,0.037737704295149,0.510966320770502,0.112826957112497,-0.298631134709785,0.535302246619061,-0.348915119392788,-0.24865665588258,0.482224306388422,0.109994604766189,-0.0614532159820781,-0.0117104516377454,0.300658381532319,0.490617727555471,0.0185868170126374,0.209430794764931,0.126721534510085,-0.338177689544969,0.519626737425766,-0.0872455180715806,-0.366212467782257
0.0207282734995004,-0.430185995178228,0.232177407426128,0.352616823023275,-0.162954198259883,0.475684668345076,-0.3541131252342,0.316502523258435,0.0682959289779282,-0.338777771976545,-0.0629628879764858,0.0991704447825497,-0.324596165992596,-0.138104502981642,0.463320275505798,-0.556989363527357,-0.180888876253671,-0.109502088398167,0.117606050727523,0.318359703748722,0.152874560452889,0.157058109527552,0.491392984464175,0.296372650188401,-0.396811508783104,-0.225602771811187,-0.547940342429581,0.435089994143997,0.193617538675673,0.0560946749293176,0.0765393773773261,0.189460366520287
-0.546673796952067,-0.0482208707775591,0.161433692091564,-0.108675005548844,0.306439684716622,-0.428916790784314,0.0726901438127266,0.122083869575641,-0.327804193688025,-0.409137124467321,0.562875642932404,0.243234935441521,-0.468355080154249,0.559375602906968,-0.516968270512917,-0.0799594935425584,-0.503040093035451,0.620065227332881,-0.36454871866788,-0.395103819997749,-0.275350656093512,0.329111731006628,0.457148321235733,0.0933416582200297,-0.0331848010134148,-0.384059557990398,0.26985341353613,0.159723930681257,-0.266452531356654,-0.558663901295733,-0.335963408690176,-0.215184234889794
0.306811845472236,-0.459346990977673,-0.330540136646847,-0.347268708172986,-0.284490868616185,0.278757142710114,-0.265951620144175,0.251415986095008,-0.283027129399411,-0.149990515220152,0.0349653722127264,-0.339257583050715,0.193377596002048,-0.595961235578338,-0.188058129603996,0.342730382067283,0.245719688351701,0.0825083495872807,0.45485966188692,-0.498175155296288,-0.189450739465821,-0.0854225103018073,-0.349484947580024,0.399253928071444,-0.562207589629341,0.151445839352018,-0.405401555246896,-0.194165955493517,-0.0247803194432519,0.508287286196681,0.511063082088435,-0.0826512827174313
-0.514147364388755,-0.16307270969997,-0.512237105768317,0.0553026166336868,0.542369095644982,-0.411399597089859,0.400184213538939,-0.407942105353866,0.0102294818477431,-0.0349070982755127,0.0138450490577479,-0.399428878412034,-0.386002213906601,0.0282143810350782,-0.0134251135889313,0.043145521351295,-0.41764182622035,0.230050200176129,-0.433909846209794,0.121437611264795,0.0308181274029879,0.0505871743036216,0.514903993121053,-0.365300294305632,-0.181376486535829,0.150943974879502,-0.358780448851434,0.239582575005815,0.195504081035151,-0.0237231216460713,-0.455783203315432,-0.27799555021101
0.542281943996025,0.210057987314708,-0.0468909302701054,0.298354385351004,0.0492560394190099,-0.526067290341264,-0.525580096580156,-0.496406620830517,0.435780034741461,0.111985202973996,-0.516783614809266,0.0282303608142941,0.470416698294203,-0.0804651212193508,-0.0764301351554241,0.200223316639315,-0.115442243341511,-0.401583846550683,0.319683615092031,0.456185174826933,0.494543373142704,-0.0639467267750464,-0.0501437131544403,-0.5260382679979,0.311215344151683,0.0299689931500164,-0.297645174376601,0.575459929786509,-0.23423603099327,0.542310782808394,-0.148381070273302,-0.079262145028834
-0.315055928868201,0.465230382506179,0.349284660204316,0.331699194927602,-0.0995493925456599,-0.481521750458674,0.206811965998859,0.373791586119337,0.0551006662490027,0.26481950149156,0.557504787525455,-0.259134485754295,-0.3337298608914,0.296925005989095,-0.28123450500075,0.167546608342414,0.358494143880856,-0.451173734875602,-0.337451265295041,-0.0220254244474557,-0.0802108480004869,0.401489970611437,0.141394981561017,-0.58288064043901,-0.348193976025225,0.351104142527166,0.441260105148297,0.197601818242043,-0.0605665179374261,-0.181556317951345,0.204682309287914,0.323275331893407
