-0.550277461066594,-0.0554041658834525,-0.548804192701796,0.00384934075192269,-0.0048592476957491,-0.329260784361937,-0.331092745707423,0.665416681562172,-0.200778675513764,0.479641357471272,-0.0792943204167168,0.506974831236733,0.314768825076993,-0.00805643865985864,0.376912567024908,0.184017372018497,0.17322776048886,0.00293163814264771,0.48742228555317,-0.534189991861912,0.00406622837163167,0.292763540929752,-0.384173781325669,-0.271925947824251,0.456609919470972,-0.103445211736165,-0.538740661651952,0.148866972604011,0.216906671974378,0.0794107902390817,0.54738711214387,0.359889830340005
0.0562139527083048,-0.427789296655465,-0.298935392125092,0.0991709950550513,0.517901549154515,0.303660774721708,0.274622158008909,0.508514839802041,0.546372381781607,-0.0579239263350114,0.166115996039115,-0.105177357621001,0.0560757871016076,0.240535711928893,0.34401366486636,-0.145911810556456,0.324128300840049,-0.41397644366911,-0.277204254024742,-0.0231080477679245,-0.269775984067723,-0.0239818738781471,-0.377811376795668,0.523579263137961,0.369835934285515,0.448135596064805,0.225176615170742,0.349443291908538,0.61941559573125,0.00187619345866696,-0.410269324267685,-0.355155625050518
-0.544718228627956,-0.18875749138402,0.352967092931481,0.470567920123214,-0.278711708674714,0.40024777972717,0.248350190912302,0.134585996294503,-0.220351505295012,-0.0324727851808445,0.187815718341891,0.341087645137352,-0.407201109765942,-0.381549984707329,0.310087006942942,0.492319494350045,-0.0897340121711127,-0.0896705884481536,-0.05925169829727,-0.368244609167169,-0.438212140593928,0.447550983262567,-0.390757609056969,-0.383158767728571,-0.320302983373431,0.0123183872577388,-0.0209913411191756,0.125018214103562,0.271836945292545,-0.0848362471800124,0.38943981750955,-0.157633910360125
0.142959859765294,-0.597047885390809,0.359655642211029,0.45144448687793,0.410027332381883,0.304198080504239,-0.481599512913284,0.0671608910161994,-0.319530405108164,0.48606897524793,0.170205552913543,0.0170694583358829,-0.059400915814882,0.148067550860158,-0.038920265797,0.418183885501752,-0.104674550689983,0.445445652693984,-0.489119710377169,-0.0456505830766728,0.0511316237011583,-0.443021454879726,0.0519812428224016,-0.412049483124597,0.00556658743163712,-0.344931495823527,0.405378560565594,0.478931879240003,0.356147753590419,-0.247050179684013,0.543573623233607,0.086536843890626
0.166183460330971,0.495231081590616,0.338143806749336,0.284751526229771,-0.365443904780818,-0.0804179191445889,0.207784844967969,-0.481417680801635,-0.167326313266825,0.00984789818545882,0.0767526198653927,-0.20187216588889,0.211984078837255,0.193974336108644,-0.0688199409959614,0.41335247302898,0.559169855900517,0.433315100318726,-0.10253428551736,0.32748327177598,-0.237196048780528,-0.327650169959147,0.382010049590781,-0.421642089099816,0.19365649153964,0.348204443623787,-0.39765009300146,0.127118912177152,0.215897376228151,0.409016094648953,0.316702495743272,-0.139051030552909
0.441228961718722,0.0028985377462358,0.402736792247175,0.249882528708385,-0.345477031718486,0.327387221017475,0.465021094130158,-0.203382931454747,-0.277358167265186,-0.181684809373752,0.571174511821008,0.0543330623621223,0.484166432332988,0.452240131813049,0.398518471388386,0.452839063105282,-0.377299702390847,0.44387904461133,0.188297499516967,-0.164899075478968,-0.548134659425385,-0.383893021657566,-0.375701636073188,0.030290591989947,0.152852624702383,0.304788562544665,0.0359813802344489,0.58284006316185,-0.0178556174587114,0.12782679960637,0.240068651072572,-0.463325243818793
0.549071752282703,0.0241223936615545,-0.167525620496603,0.435537952199166,0.307762645632065,-0.254469717623796,0.46763924071094,-0.152596786467817,-0.384185827692874,-0.114435466598912,0.242445909926331,0.0808838310210437,0.148357766820859,-0.575024243252306,-0.349061339387028,0.555087815040061,0.514598978767618,-0.0902944432573715,0.281604413433974,-0.561030162239261,0.303195812942106,-0.118513622337271,-0.171466764706752,-0.152528525600325,0.412969384423333,-0.00934492037183006,0.489031723231787,-0.352970909251996,0.243282057282462,-0.28881120021009,-0.420440855020489,0.20509468727735
0.169297312661064,0.0702590628895842,-0.27394700896828,-0.247468554899186,0.275778988442742,0.260846695266411,0.259111080029954,0.0861473447687958,0.541076917730524,0.0110273329840137,0.572383444104225,0.220038853825124,-0.0859240110553991,0.42791960540844,-0.308605635756182,-0.055918590077201,0.108834136429715,0.436899476903186,-0.353758714978067,-0.410798403519552,0.376244292450945,-0.228817988992348,0.161488810630231,0.335932546722372,0.439507438275548,0.454884396461411,-0.337087449923324,-0.492201120274986,0.37710302517328,0.573320415379221,-0.00413852408297424,0.542304227538885
-0.134222057760166,-0.284014358264212,0.272797398588486,-0.426947363282172,-0.161591847436933,-0.258869100404653,-0.285764108011449,0.418373566298888,-0.540215972327413,0.489264535131179,0.517410619051481,0.430127086833204,0.197458065221089,-0.14124629921853,-0.173346512860891,0.510828183635234,0.583317187533113,0.396103894631375,0.28110730771648,-0.444914467690666,0.305006299418199,-0.283358566936419,0.469631397683,-0.591460341771583,-0.361628117534221,-0.233114200448884,0.0774996802839404,0.427402073897405,-0.17245716891465,-0.384936910377639,-0.437825196341256,-0.406155944940591
0.54605209332527,-0.344559282175346,0.587834985508046,-0.376006277596672,0.194229151434925,0.259927957676568,-0.250999478441547,0.138560746821513,0.0809650192526065,-0.507124740912227,-0.0792663397349025,0.0527056763350055,0.463173610803247,0.0674817862537045,0.229541091249514,0.329598096804356,-0.319390656233066,0.486172037155806,0.293973071972872,0.418245949366585,-0.549016910667469,0.235110225377887,0.47013483008295,-0.277367845617926,0.474695743242598,0.0921021891746298,-0.257521478263815,-0.53274968578945,-0.322479801781142,0.297961525433961,0.134988274515645,0.357031814658964
-0.522109753364522,-0.429831518158617,0.196633379772335,-0.289010233832662,-0.0334824303634889,0.0304184281522755,0.14510158085346,0.180446906901679,-0.426773091980218,0.250739171204322,-0.601705692322315,-0.593613937600599,-0.531190885244319,0.184309706572018,-0.383619566302324,0.081893294016778,0.454874738253515,-0.386309139779532,-0.349232565878585,0.495037261875574,-0.163226238250236,0.239423031243002,-0.356478280457398,-0.267665853640023,-0.547904745356907,0.311719253882051,-0.0542911761327392,-0.552022609462802,-0.434051451728186,-0.377120109894507,-0.212168296886655,-0.112138345953594
-0.282600569897095,-0.216469696826979,-0.222085411678644,-0.231878977860264,0.402489375771752,0.353271544048717,0.283939870712637,0.52102782589525,0.353224723385123,-0.101565237536486,0.561863845270719,-0.445159777688008,-0.16811451204913,-0.450924011038645,-0.21478659998608,0.0198730001147099,0.0040416440878471,0.0261098053058799,-0.34566473225511,-0.606303379626834,0.499571560504967,0.231301407382394,0.332361053507525,-0.389977281394621,-0.144388939938764,0.0792703801542544,-0.440326860274792,-0.418617250764366,-0.299174858522957,0.0685737320798757,0.243288027328091,-0.455209067508939
-0.361946895696801,-0.183643873898479,0.404454712029348,-0.442725971719466,-0.487373940757572,-0.452684200490573,0.610086343750585,0.560583182673069,-0.0450844287416083,-0.171808766842759,-0.451501184711059,0.0399536670763973,0.56831899959949,-0.23363892192809,0.140690681432137,-0.381248069719318,0.296375013706166,0.474221851850589,0.41921084384333,-0.301239263135424,0.547378085356473,-0.405222169401643,-0.0196225097108704,-0.0731925130066157,-0.474752562384201,-0.146548381852165,0.160121643113164,0.522783299913269,-0.374193566274704,-0.515335926159159,-0.467035575618278,0.364704615661527
-0.432411779337566,-0.389894199566283,-0.578987498233541,0.2359605070631,-0.191757745645303,0.433704220064212,-0.0243197580621945,-0.350485741290028,-0.506952327356726,0.066209503305272,-0.229465915034434,-0.393919403401086,-0.156835946051574,0.216804135783194,0.347862065790146,-0.433069037375629,0.134353736804555,0.399538585732726,-0.0546247544183869,0.332720880173241,-0.448756323485267,0.468750251290496,-0.331069484291211,-0.0361242657893797,0.283975316550704,0.282430090059999,0.0709876588566694,0.381656113871291,-0.55345796219513,0.476339043575237,-0.368787163436172,0.335953751407345
0.397621294771359,0.290711146145961,0.244782406761342,-0.5277659165131,-0.0258931508162319,-0.323103270674619,0.171365093173465,0.0241345176561431,-0.10597598496377,-0.208718248764128,-0.350296791043572,-0.266742711582214,0.00809318862283438,-0.285247437508014,-0.498415058102858,-0.340125986006312,-0.0470980089257334,-0.19267958963908,-0.0115479280095737,-0.541256887468586,-0.210187979089503,-0.34430412028499,-0.134933910025432,0.228599615498048,-0.187319753069522,-0.0820083292979764,-0.481548471438062,-0.390008321337707,0.0189733301455713,-0.0826143029386587,0.196622754030682,0.102800683928338
0.180958493114031,0.0970142384892048,-0.572639362004783,-0.0707331346697594,0.235706311064397,0.130670784924572,-0.0341716253068296,-0.181972274831198,-0.105382228435719,-0.323096935573402,-0.10264824488604,0.587070562869151,-0.440195030913836,0.324491121511707,-0.439180111990026,0.366497005961837,0.379771966973271,-0.328072016446215,-0.146841777419283,0.286710780751597,0.246765307103204,0.473538749182356,-0.06289560636042,0.552182034438529,-0.131822510870508,0.0761804830657828,-0.390277969237754,0.0525916568898019,-0.0828559532140197,0.446598234344862,0.232569727184669,0.50216518088801
-0.479447167016321,-0.447000961647358,0.0883753615145746,-0.387471794582312,-0.407334334616469,0.562612737732166,0.511981339283154,-0.128137236704545,0.0684714268280129,-0.100993069290899,-0.48549536630816,-0.605104386965782,0.00025622903859069,0.520549859576112,-0.147355617891803,0.462756236929774,0.269222206359324,0.558279175885911,0.184543533491959,0.617160544264397,0.470330315798632,0.506929544577128,-0.465093679588486,-0.507865466024267,0.49299335098018,-0.375520918140843,-0.16572873638781,-0.375888393090301,-0.302180378646656,-0.134177638234999,-0.435443092688927,0.463300305056792
-0.345746886348301,-0.430892234500067,0.508786699922508,0.1933234174992,0.229701249677095,-0.0780342027137093,-0.391122879850911,-0.236558271464203,0.349400409217632,-0.315012694978218,-0.458668919824485,0.0468504653196724,0.144084562737813,0.256793020431043,-0.411018472145721,0.28506482863133,0.221546472654613,-0.0635916102357984,0.491014377892752,-0.27075412422049,-0.337364162698648,0.421318709630766,0.16489954755843,-0.382563488141957,-0.496468453201114,0.438739870337181,-0.0457488099862931,-0.406927358988875,-0.325942375679199,0.248599880399831,-0.425302800607456,0.3467877118538
-0.182459620022663,0.0645184844662487,0.317463047885149,-0.00295947163532565,-0.161954507533079,0.156397545922484,0.161948299089742,-0.283489195311222,0.509844313224918,-0.384839747434323,-0.370745854330962,0.265946299457888,0.193857866034948,0.00972100863122729,0.521147257202642,-0.172896959127355,0.419635693120514,0.468068291530946,-0.136704726319337,-0.205809756964575,0.29510366328389,0.219074440848661,0.249813279457326,-0.582741356302501,-0.309905463226141,-0.470090929153865,-0.448736383734306,0.617975968831841,0.196405945920573,0.244963708779611,-0.233817977095584,-0.322296857521445
0.451203706610455,0.46270147846829,-0.422028679263146,-0.412753996636205,-0.317988663977932,0.0516014117778394,-0.0896435376170651,-0.540157723303964,0.12570330011315,-0.43087342279797,0.141804968955519,0.506562448158082,-0.350042686194947,0.25240996946231,-0.114936033868258,-0.292515767725549,0.337199091646573,0.417820280658907,0.491552818389627,0.312012105896769,-0.420627278280262,0.00746485905857382,-0.428959433645816,-0.159423218854925,-0.32343179162139,0.0300304517671482,-0.452061325011244,0.178178634013781,-0.392219890792814,0.343512828720284,0.029042232957821,-0.197479995946629
-0.10266253878197,0.51892259920717,-0.543661501034835,-0.33730802909861,-0.488310990352245,-0.386067165118167,0.0332626009288546,0.0190805360849904,-0.596005994470516,-0.512370798542242,-0.244564730568693,-0.17539743379144,0.0609824130425299,-0.594016258853121,-0.41802783689094,0.297597330482474,-0.493480434536001,-0.439172190789067,-0.118695759848015,0.389932491961639,-0.506591308477935,-0.255509207372358,-0.339744794731884,0.485539923280565,-0.484988041065166,0.559128574848299,-0.237341225575421,-0.69433697212338,-0.470563186635743,0.230709130289608,-0.341491143621159,0.304812111966563
0.0614459065855822,0.483319605513665,0.239241172418604,-0.546150064746563,-0.239521905135579,0.245039139751255,0.449785114680209,-0.152447644049489,-0.121290543247771,0.0248993678596322,-0.0701152426059804,0.138859855158709,0.200024351831899,-0.0357104178143736,-0.374605489705084,0.550064886170526,-0.3754263618168,0.0428115234345104,-0.530345028588658,0.180346704012201,-0.34889203699908,0.0853147384411995,0.561889091575542,0.0457499908701513,-0.642958749762321,-0.337173826905086,-0.0126587450518483,-0.0943749159295184,-0.221294509391502,-0.428550392763543,-0.210660038678152,-0.301717705072267
0.153193482203708,0.320764291517665,-0.0642629797286639,-0.0826248821314419,-0.218356992181346,0.322424687351342,-0.119780966178874,-0.459010981717839,0.555050974592192,-0.553164114004132,-0.26779738168402,-0.0271885462704197,0.106575744020962,-0.0332986328867396,0.177347978901461,-0.0657060867221797,0.35265632736897,-0.147787913529091,-0.28806584017826,-0.350294530670298,-0.0324885300024745,-0.194960890700396,0.596488541976217,-0.321910845813326,0.185782109938275,0.312622083606912,0.323479990649384,-0.382382812596854,0.378252422590246,0.0893131642135477,-0.407659471468061,-0.0903111095524105
-0.230042558381815,0.267881897212106,0.110988900522337,0.296527243717712,-0.416225438985328,0.206830160549301,0.0991231941910327,-0.053689087868477,-0.131069456881138,-0.349506954965737,0.0130086891455634,0.187007862975341,0.440310040372273,0.489435683469564,-0.592439404437911,-0.460464822527241,0.104389921587733,0.202300944832358,0.242898220463461,0.0536360185910865,-0.181166861662073,0.19654406829807,-0.0767340864481988,-0.351716000046755,-0.0117362525998476,0.45432604682313,-0.109096326188739,0.457647314726862,0.228227856126738,0.0617548372610758,-0.400019363641801,0.323049277348132
-0.349858175444109,-0.485260269231001,0.182685690990967,-0.155552451542483,0.36685434607138,-0.108622952599342,0.0934849856389692,0.156492346880507,-0.0684274965477492,0.342069951866836,-0.338648701029258,-0.152752221474447,-0.214423116634917,-0.125475093867162,0.138915036152334,-0.449183812616727,-0.13474181422048,0.126826232932219,0.203652917037562,0.418285593748995,0.0327426618594114,-0.352638837392965,-0.561186021686996,-0.321108543456456,-0.0791953570257117,-0.43117286845889,0.101189996293764,0.265989033462812,0.540284685289435,0.0180048847645704,-0.0400344888334455,-0.450265033501454
-0.471920976951448,-0.217563234083492,-0.170826644364797,0.0771128406128676,-0.18508704878321,0.507696675303481,-0.513649280129027,-0.21163738099008,0.118992996158098,-0.176137134251223,-0.131210758711505,0.221685083585952,-0.382130980430113,0.390319981144522,-0.192040050003129,0.0578838233800973,0.1071942798368,0.245519417242317,0.135972224410256,-0.0713616268900869,-0.371323021174844,-0.0846339206037375,-0.0100652406527544,0.451511935276605,-0.521147284098838,0.0983508808449466,-0.370854024353608,-0.376321952278363,0.350006186751683,-0.343232276882195,-0.436792001571358,-0.272540762151589
0.435505287272217,-0.108026018500373,0.533252525925589,0.551832520636978,-0.056792121230257,-0.461632788091052,0.454017652173447,0.121126513089587,0.427780616285739,-0.18810714704622,-0.521737573067444,0.179657389309207,0.444787100134448,-0.123622357122701,0.147132151570145,0.109360393196683,-0.355401087762644,-0.379228525803546,-0.239817690617962,-0.316593453331299,0.450521541735226,-0.547648438822735,-0.465847330607155,-0.00638191683921806,0.282217500925919,0.451933009400993,0.498470007900379,-0.00205327481940291,-0.352566852121886,-0.571871506915959,0.329471358364535,0.0226502303902603
-0.163329011315739,0.184016862140574,0.130443702151992,0.311278295662764,0.0410426515072931,0.0654907372754231,-0.124301034515776,-0.478941980238323,0.0559123634621192,0.312921432195096,0.0393782212054206,0.306756956291143,0.0558101981325172,0.301582334882616,0.373658649065339,-0.31635646722236,-0.410476629292753,0.192324394805253,-0.186990806801776,-0.00520706345541427,-0.310528653442535,-0.413769558177809,0.012902478274902,-0.201775391874988,0.0897757211539352,0.473521757924421,0.157952007099092,-0.0957744129016716,-0.0724632260162325,-0.20667596741566,0.217709364436921,-0.472203852439635
-0.0949754309786384,-0.444080484676526,-0.286441492077225,-0.105563996754783,0.407731642746108,-0.406560141837902,-0.0321970664363024,0.543580700964628,-0.000929456007845855,-0.0761585168112216,0.00722153218318113,-0.480427464097078,-0.275255215161299,0.346790478752103,-0.331324223565298,0.0294695037575841,0.625105581612593,-0.154780425544849,-0.195399759179041,0.299447077777779,0.108787063397527,0.214093138521247,-0.524352800314377,-0.310939758734114,0.0465419864912202,-0.332073922185877,0.383275372678405,-0.0975075520764369,0.314907724206604,-0.341249482275781,-0.548994457204537,0.442427032910852
-0.352167296964849,-0.505833477602595,0.0606162311890272,0.0996777595478082,-0.592016021099711,0.27853826453307,-0.404788816146926,-0.171893545281791,-0.296076266913604,0.474894564063536,0.472928475265236,-0.39280723673379,-0.131364247864624,-0.453741514812326,-0.15371956721825,-0.39296926901621,0.442008006996344,0.509044741782065,-0.423998179541301,-0.481706134743158,0.546846270902055,-0.574489466683977,-0.466225933333837,0.074821322508545,-0.164995575579711,0.357106235242049,-0.118955215220019,-0.247549894072903,0.340785960387378,-0.22912879733206,-0.46302454853073,-0.13262553652375
-0.584036113144464,-0.205390747155705,-0.254493216926475,0.16308581156111,0.504186322793931,-0.238708412664825,0.243017633850652,-0.486752627524742,-0.134196895662967,0.366222866406626,0.0461566513706242,0.18836113364809,0.0337156706945186,0.25735801437832,0.446613734292771,-0.140294113558968,0.195589846021377,-0.0750904116078664,-0.122715139783806,0.355829653987468,-0.352768631593783,-0.205560476886482,0.427159285691143,0.249234205766673,-0.0744784938621768,0.315425978739624,0.00669116088415753,-0.0600752181916197,-0.473508059360867,-0.0940542436003305,0.111660640582084,-0.309830124024504
0.561212355472545,0.37537492457897,0.467626509677912,-0.456859735577354,0.10347138930013,-0.25661647127829,-0.527795904367541,-0.367464489418936,-0.463128863010738,0.215192313800686,-0.565998074459721,0.21148034697917,-0.0548417959811166,-0.0601786723633103,0.399084988937582,-0.314748308326941,-0.0698085386451825,-0.554386604156356,0.615715841505834,-0.329047837991239,-0.363036089062791,-0.145557254227815,0.439634641333079,0.28188729233009,-0.291107897310041,-0.548322953146862,-0.276464314696188,0.192480216840351,0.309984996398267,0.195150740342406,0.0978861959521258,0.474466698243513
