-0.210653900853075,0.0463073980540305,0.154541073818191,-0.558344595305489,-0.32690318113904,0.186645888741978,-0.376637237614542,-0.13907736842037,0.37690744647746,-0.0223512621206893,-0.225007301691579,-0.462884368670022,0.0456106394213463,-0.292072868539729,-0.574047404810838,0.047114112032282,0.116499817894583,0.245278798839437,-0.541645484280203,-0.365245195462506,0.550327027682083,-0.459205356679156,-0.203705191624922,0.412258020940177,0.161437792854308,-0.312033705433122,-0.317361775093686,0.0141977231367096,-0.249819957889214,0.124184705016086,-0.527580322891717,0.0970818873227822
0.581414714502125,-0.120840908819754,-0.068690837476303,0.0669522147103644,0.194085348526762,-0.590519108317659,0.366317178415721,0.505206947772676,-0.338315296652348,0.504144077494983,-0.0245126009510731,-0.488664740815366,0.523421575519191,0.137344153915564,0.536400514533638,-0.107440883542909,0.38226865042856,0.538904187464874,0.244854613718704,0.356075394946272,0.0712181878274198,-0.214977991358205,-0.163192012427937,0.253191942451094,0.316888936903078,0.439569148607584,0.403731760608065,-0.505275144121855,-0.564435319000342,-0.129819192240754,0.521485630535746,0.0535559334946541
-0.406619206123823,-0.183206906920876,-0.483235110142514,-0.231229966007258,0.495600314076315,-0.523508898070185,-0.450074123046531,-0.381930492748259,0.424069890697752,0.198634607160945,0.159177457420984,-0.256703520564364,0.327893567967179,-0.360953102731673,0.300273548048509,0.495175428501742,0.181807016077628,0.453557645144627,0.205348049827764,0.379717931016026,-0.278411056019438,-0.115339749416859,0.0721513731416575,0.291738214256081,-0.310747524303621,-0.0144069630804148,-0.405331199962505,0.375960717670772,-0.0775992430962758,0.595159569724936,0.551765375311333,-0.0700079284119224
0.223732899621184,-0.285509694392723,-0.273987063774303,-0.567351283487853,0.0182394073760928,0.0750577061973809,0.450060431909288,-0.326149705343495,-0.267706727317701,0.160163268218071,0.234590101576578,0.164298127144437,0.190071738950564,-0.0306099476059625,0.241275166727409,0.343972073281018,-0.241402655094035,0.402861474696064,-0.323390173738903,-0.0541737356819562,-0.0230176065868205,0.253132786910151,0.566555287112901,-0.0761521084655767,0.171067467048809,-0.0777586850236529,0.0144081403065212,0.182484292858165,0.10951534010713,-0.154563401168548,0.141913571362584,0.405227755170664
-0.105941455462589,0.522006204674115,0.485095162830955,-0.134747345822657,0.495066058009433,0.447446995454532,0.133975249691532,0.0117472307707815,0.323795924748928,0.294773325986036,0.393922073962365,-0.597561081529655,-0.405777475770164,0.467749791345005,0.414099584844003,-0.459400400156073,0.0415457537522064,0.264406520343052,0.159783106257381,-0.332621626703454,0.103056711614415,-0.405021583613256,-0.213963547399761,-0.530196772340812,-0.0458608502067613,-0.146982409347377,-0.390486416565392,0.1298535591762,0.557314353296892,-0.352960298345726,0.634995421665048,0.420877471149378
0.344543946294776,0.109499901684937,0.00823137788169265,-0.211949350923781,0.0148303324191235,-0.349435342928605,0.453526569003943,-0.473551214110824,-0.180322085655287,0.337612444164828,-0.410544101030518,-0.24137362580864,-0.102437794020495,0.244308536311833,0.34723304218109,-0.490481550509545,-0.496506550805399,0.331527786515408,0.000510715069087061,0.288105602363256,0.292780729476595,-0.250081673736064,0.576387179034641,-0.0386724835156809,0.127045682259486,-0.409262890586859,-0.2919898421333,-0.312602270966873,0.25798208983831,-0.286639007211211,0.0938156559183015,0.198137973249334
-0.213521354125134,-0.374769519253182,-0.101648326372007,0.466803783537304,0.434405435832103,0.392308662967385,0.282905139453933,-0.43175251997365,-0.141097086311686,-0.494173444444384,-0.58315652512027,-0.154168057813352,0.00843104064265979,-0.424334611865252,0.318566510780895,-0.0266670297498775,-0.432508137720856,0.00454480317608932,-0.275777776240989,0.0842860040248967,-0.451626248774163,-0.367719447087464,0.491767263210329,0.467317329597975,-0.282011208907318,-0.316990894124421,0.331340461435287,0.146843222832626,0.191350280069058,-0.468266993166896,-0.434830565349411,0.151271988550264
-0.0788152614863735,-0.401497222220152,-0.235210346253949,0.221413763390711,0.30229957513323,-0.463021050369526,-0.149271379568372,-0.166600550396915,0.270274455668052,-0.278122861299867,-0.301368114587834,-0.411269283724472,-0.374501618357289,-0.00853450486612486,0.471617212495039,0.244724902927858,-0.416345481715077,0.164386478074859,0.102651201063002,0.108365522553735,0.176255721093282,0.468577112546925,0.398975154225666,-0.00493448845564823,-0.262769570352427,0.0125199012856879,0.247982201772564,0.556038645888239,0.481221265996124,0.305227511272761,0.172675576499686,0.471415772402909
0.205921946623582,0.0841456060970796,0.426044196291865,-0.0309469135390665,0.133787420671312,0.336152129286379,0.412233384684448,-0.0608202571423417,0.214218810032547,0.559887329510108,-0.473725709572749,0.408015804344332,0.0908231587618638,0.103305143248893,0.460780440297203,-0.340491115864217,-0.109250381816405,0.11417922383117,-0.309745211103365,-0.0278871499507164,-0.359957320434,-0.00783433983172782,-0.257388952864455,-0.292014622077878,-0.398865399593378,-0.386318669939474,-0.461873112478937,-0.146330382402459,-0.290394695277678,0.0852096360062304,-0.28001199373676,-0.253177121013283
-0.149580709724874,-0.11942441901898,-0.0726850637221349,-0.433970128979076,-0.257976041643614,-0.172715874546174,-0.197964991401219,0.138917382259449,0.167582861236719,-0.186435098599485,0.294776946671963,-0.533627451527474,-0.594985337731016,0.430544224781609,-0.247447830965151,-0.0573148991461099,-0.580845853341869,-0.075056872437534,-0.256375115341381,-0.244560605043216,0.468735773065281,0.504614113856298,-0.410142024231976,0.279431124942914,0.023834037306549,-0.0102860502814781,0.0516223933315034,-0.0404092580960912,-0.437467631559048,0.488512135071218,0.0456629002506043,-0.247316790530954
0.122339243460712,0.376419790164078,-0.266667022737943,-0.420903588890231,-0.0710268788382485,-0.207914356654058,0.483149610014045,0.0603656876241648,-0.0936121462723652,0.534894382024777,0.456669210918482,0.112186982949042,0.165368099414353,-0.254129743604152,-0.292587164127016,0.334445940960094,-0.0899255728221902,-0.397758098626427,0.361301670599556,-0.363949229132354,0.16129504639973,0.124354758486922,0.407036389722027,-0.404229183665868,-0.251006492192524,-0.37853534924656,0.242083286152538,-0.291749702287143,0.142297054929513,-0.475695236676814,-0.0964571766443624,0.271206584129768
0.299187048047184,0.497388197813377,0.489466177372347,-0.118143785866786,0.596066479789671,-0.106224848714662,-0.316054204382702,-0.144823592415619,-0.27236671841749,0.118441951240053,-0.336781441202956,-0.507301682817268,-0.0636291763517315,-0.0531174908736011,0.00781913332791266,-0.307335926490763,0.378759444822786,0.278211037426568,0.463218959377186,0.3073566718366,0.00865129447005932,0.476765065770512,-0.516984938454022,-0.38298538879414,0.352892681489826,0.288260435353457,0.372106048821323,0.574778093632545,-0.423738939437593,-0.03407941724578,0.459866008480686,-0.52281254799469
0.416404180247872,0.232861629224526,0.304306052085218,0.292758659928689,-0.0787971823844737,0.176493055454729,-0.170890302624688,-0.0516210039988158,-0.0683715602414202,-0.125375861028371,0.29990426668428,0.48277083023792,-0.240503127978854,-0.170469824840436,0.479902870211167,-0.0112098358166537,0.256044609199098,-0.334603238651836,-0.360023032854773,-0.562739379384411,-0.0509751171319222,-0.459663101786717,0.109646153984739,0.184822674821785,0.0454313946413186,-0.197202052815064,-0.0776359920660583,-0.0893610321908247,-0.478537792629945,0.346926729202298,0.440461491215523,-0.170315399002534
-0.0334793847082712,-0.409737576655642,0.292994834142593,0.479164729903041,-0.148449696473715,0.153897821785815,0.395466176916301,-0.320897705823654,0.503505246430572,0.429015926248875,-0.121620103279592,-0.41565775467296,0.189173190260428,0.363082254796692,-0.622806254867402,0.391038051437435,0.258813672160623,0.648969066875033,0.549767148225402,0.0765626377955104,0.0873945816055635,0.275540063403643,0.516475433144288,-0.411801521962442,0.279726723041596,-0.0724561473604762,0.0614848915413787,0.31991833572709,-0.428198611985931,0.322188769181667,0.0288249089799804,-0.318692167866776
0.48028179190587,-0.0981191081277522,0.461949498198741,0.331515052182781,0.0537599601533004,0.3935942415094,-0.548866001016533,-0.115494699933298,-0.137640745140578,0.225068778727588,-0.223279009605476,0.26756513253996,-0.387440194267286,0.417432820141678,0.335430136113072,-0.313420237153593,-0.204605369997829,-0.353339184163143,-0.109826028977054,-0.433007617720959,0.406734460989535,0.598452087780019,0.475702721795108,0.215754198814682,0.312845404974294,-0.0594361420421715,0.0524884610111206,0.514322262809219,-0.273919405858857,-0.302169468224465,-0.542256756539216,0.328546070814
0.396661852285382,0.00416495560665184,0.0678567089743634,-0.0194821603488365,-0.203468047869007,0.0341594167809359,-0.365959673869629,-0.436689626344007,-0.364172327727304,0.0540150680454348,0.377387581303532,0.445189553106429,0.285095864946025,-0.394479810004161,-0.0776199557298611,-0.576390475733758,-0.299667416362497,-0.512558069933253,0.334066142327091,0.502028468735681,-0.50879736042866,-0.342878484672966,-0.359697837323282,-0.0317454911122561,-0.516362920464107,0.191948222059843,-0.199800084295492,0.182139368493718,-0.240674673692355,-0.286379076217045,0.296027768653247,0.106717208576607
-0.451175363255276,0.513051832667563,0.348038014828904,-0.0965473799477536,0.270065238462835,-0.542327028861731,0.4297295830087,0.536754904281652,-0.359860056405766,-0.114773514519996,-0.408130987471781,0.473136700456755,-0.588133767003007,0.506763833941267,-0.21849188606456,-0.226771269661729,0.470513749420968,0.203538243877164,-0.0870800367786979,-0.208371737084392,-0.0132756504371632,-0.317305354123702,-0.229639358274896,-0.0909297075677706,0.443631432140041,-0.395348533269845,0.520180636320197,0.375898467596184,0.482696322273373,0.0162851298929894,-0.221299294770095,-0.245835353568322
-0.294266485049665,0.114344447519977,-0.209767680668885,-0.292325148436895,0.0688111167813889,0.238098618394398,-0.141553937259936,-0.112120160739121,0.297469113666491,-0.527270383757281,-0.293362453798032,0.279331503491158,0.236106926663742,-0.117669512553103,0.0304015874319784,0.255237533302573,-0.538428305396987,-0.431745877523478,0.0272741284288695,-0.401619775805355,0.189123730818678,0.279659881475319,-0.196780885758544,-0.37299209496233,0.688524488366077,-0.300833698324412,-0.262515136161519,0.125956482272556,-0.203241718342292,0.32246427718099,-0.43500957804749,-0.564963918470256
-0.298402838320052,0.401474617511344,0.173923363523682,-0.472442514881182,0.31733217577173,0.0456868800358625,-0.0349557550413636,-0.0933677337696957,-0.243675102908483,0.544587692323517,-0.209504064274304,-0.0232880053172389,0.413740425245455,-0.483313860389846,0.095609304201897,-0.153263105538688,0.0991364670381364,0.327052363306517,-0.55119839543723,0.473800796480158,0.219328936450595,-0.494750040978356,0.390253817807127,0.279927689302867,-0.180456674797015,-0.519639929638578,-0.100529343337716,-0.573120484917679,-0.107839811601602,-0.278541563414623,0.443300267738421,0.4620687667111
-0.29625891645543,-0.254613992531621,0.328830254836548,-0.552431986382747,-0.212768261899451,0.0548887860110791,0.441031520216796,0.152404561071396,0.184384776514537,0.275006305158194,-0.218888274735551,0.450850991495708,0.257733919992727,-0.0942587010169112,-0.407842992225985,-0.0963409866712738,0.50653641096484,-0.564051390245795,-0.250393970394459,0.00788511488298359,0.029519600858308,-0.391946576189305,-0.227689836448511,0.166847412580336,0.388309133286254,-0.403734937365909,0.203897232159821,0.186315376100338,0.0285422178856795,-0.28166914840166,-0.224975628935554,0.530470498736414
0.200392088759305,-0.44339164054534,-0.232404865005583,-0.0906203581493295,-0.00116899585435539,-0.161823063749021,-0.410738242104113,-0.221622394690208,0.0848623304013172,-0.388091758532133,0.479764888025265,-0.0902749175035146,-0.364887337213701,-0.373022341093288,-0.329280285294214,0.389026545047306,0.393372308236961,-0.259682474525216,0.150112948582657,0.194469246156074,-0.301869453580937,0.471031850013336,0.102982037213262,0.337772732805122,-0.406354422116922,-0.188101010191897,0.232661269632876,-0.138420705545704,0.378406476243001,0.583387237574088,0.342564675234307,-0.520915380080709
-0.523033717573794,-0.283735513053786,0.178053471351976,-0.0513688159927681,-0.263412598938019,0.459013474546162,0.407278111361623,0.475774270748993,-0.198018023957828,-0.131609141002347,-0.275972945919297,0.379697764252899,-0.143542148197684,-0.553548116759738,0.494322177881335,0.0212041244279365,-0.263482091791794,0.375759374912064,0.21125654219169,0.288834045695115,0.4299111861246,0.583530920983952,-0.157780951319272,0.325001416397282,0.45932522389012,-0.153797457769151,0.44541549464422,-0.315392441571412,-0.0329877989599108,-0.192532585438121,-0.421819984219938,0.147302367920031
0.349175578435436,0.387929019029984,-0.336891308246606,0.537620840335302,0.561024053168443,0.291724062863905,-0.0693117947274332,-0.379647513635889,-0.51200722549146,0.143116680103305,-0.254729788903939,0.140551638404642,0.361327379912773,0.0661048499730116,0.553984779187878,-0.522355305301467,0.0330485505560522,0.339706477403725,0.163930364179481,-0.188217272172329,0.570358457680436,-0.306485722001501,0.223664340153248,-0.455916860405016,0.050375596276526,0.263574039669182,-0.351738126445735,0.156042201331166,0.256008338475604,0.233222557496836,-0.513736750227147,-0.149822545739381
-0.0402424423406061,-0.015342434941028,-0.303908984545005,-0.424198111014412,0.188075102399333,0.265537873791194,0.383581412369453,0.1840557461966,0.411019260891677,-0.135684612890511,-0.343913865734196,-0.047258613254349,0.144601279321927,0.456509168919966,0.0493672923436948,-0.500088547856521,0.431091794981651,0.371404467074691,-0.160433372353814,-0.122940271985563,0.302312498151496,0.114490019974991,-0.193062797216276,-0.140990407481984,0.26713698148652,0.0358477393930671,-0.381302465151964,0.19576570357423,-0.0011721143400797,0.0663191429792011,0.362207275012277,-0.568965214108541
-0.419741482672184,0.154548359670414,0.524872309238253,-0.0327387750203881,0.166793861242882,0.484686002170604,0.222679809089989,-0.561889063867816,0.0150626388720384,0.527217796858386,-0.541791731675045,-0.257165059536716,0.459102368636402,-0.406237462373431,0.0569834450669066,-0.485366153428567,-0.131122346401724,-0.325052045461561,0.423357508817781,-0.454357974201015,-0.170744075506603,-0.242174420771337,0.450546258292264,-0.10779781751272,-0.258817063672028,0.114312701782219,0.176747085533925,-0.421764507131713,0.292668129250106,-0.350241189317367,-0.489974552038321,0.267268441801036
0.135141891707949,0.0289861689479598,0.288994385445186,-0.125319428958088,0.201593519646454,-0.452170129187394,0.270884455107575,0.245045516092919,-0.453281823123677,0.153122670377462,-0.0746490083758563,-0.29682895986327,-0.294495790364832,0.546777070394536,0.180674618185087,0.234249758811264,-0.209257808037907,0.276969053136922,-7.57894422178238e-05,-0.520094186240648,0.285875664041462,0.129391088863181,0.4493343964035,0.336520893984506,0.289599575249658,0.485557178619657,0.269822422390054,0.395664086877326,0.442484892091828,-0.443869227903632,0.00537906673354043,0.339730589904464
0.341722767929873,-0.0907586909519421,-0.444400564379538,0.144697171536685,0.0589635877768498,0.16695095716958,0.0853407927984159,-0.491865138813107,0.459891353456734,0.395823133547289,-0.499345443991929,0.248887784642712,-0.380923233460876,0.266825604980536,-0.446222803464333,-0.393035723264456,-0.352615850477331,-0.414555580576499,0.500693898981854,0.317995415312077,0.104031400164526,-0.185267612982899,0.42466634189074,-0.564736627790691,0.00312837117359301,0.41923601431411,0.135880478569832,-0.0894913642014061,0.147491741962484,0.176441501316041,0.493599468375902,-0.0503294016232588
-0.151599505085457,-0.431163591177458,-0.271905070845672,0.369862268338465,0.250381403917931,0.35551365691506,0.0321556767668581,0.065981329340365,0.337939892972453,-0.349708751040291,-0.154265614993715,0.111720143888252,-0.572290700532262,0.335635986843268,0.34000414408158,0.186985101025374,0.0844533519176639,-0.0159586844370332,-0.184234106386674,0.100629333829779,0.482586445255405,-0.437524720191267,-0.323534012702855,0.197911150704113,-0.09145075287609,-0.202136387656315,-0.331310486726895,0.418047655381647,0.550771726625047,-0.168311103986492,0.621741025090318,0.499669849929954
0.327334741695107,-0.278327883303037,-0.475721610590248,0.46747370230742,-0.171473900536969,0.469719141703978,-0.493354347835167,0.0912087158777208,-0.566123114648157,0.0491199234693689,0.280505702655608,-0.523283991104194,-0.14803820835206,0.146818104887289,-0.251506091547551,0.479971939566429,-0.460924584676918,0.0249414339371668,-0.524503830918111,0.417377106085871,-0.42750162391647,-0.205861644974281,-0.197138742354193,-0.517465618532627,0.125129610465097,0.534445376876946,-0.139177710939686,0.317549240828471,-0.365305373542372,0.436212679229627,0.340999772016885,0.373517891491191
0.228081842250957,-0.310988458378445,0.337168309979402,0.0448525402356935,-0.0400017047874351,-0.191478001331302,-0.480212823992264,0.248161289563847,-0.14698891062291,0.472682548614814,-0.232261759911928,-0.469193185936385,-0.303863042156497,0.198069044393678,0.379029203074558,0.348379511785385,0.0537447060623855,0.480818795911369,0.00774455424662735,-0.128358843356768,0.117598739170817,0.499891309698509,0.381849814331099,-0.427570480733332,0.289436524943607,0.0202055124625437,0.450565522158463,0.0672121786874539,0.487888527250097,-0.321850375102385,-0.344752738192315,0.423494481457094
-0.343862967639635,0.241758910122137,-0.144140936571797,-0.324825200891336,-0.27407929998368,0.138488742148065,0.129886150515534,-0.167648043954699,0.00202297025320145,0.221432286260406,0.412030348169701,0.426088123112914,0.613192819640247,0.309922224485053,-0.572846168510911,0.0845827666753891,0.472090307470353,0.559135703642433,-0.0655335779268053,0.272335868071978,-0.0438059348012859,-0.0900014397730717,0.034352773052465,0.359649572419391,0.52889503566867,-0.273246437521585,0.181701763454901,-0.346921026461293,-0.165110481904015,0.0872269728053029,0.395081542197185,0.128430868769524
-0.412817725844002,0.408131454049293,-0.194286958915966,-0.470722562789694,0.223535168715003,-0.368512803086693,-0.00613399969752367,-0.45793817310062,0.483978376207336,-0.0724532843795434,-0.56720410705271,0.32692635794866,-0.230840864553096,0.154378308399968,0.434152181354516,0.481040057167204,0.108542964715782,-0.580213637286331,-0.515770904655835,-0.366926638837281,-0.171630972792347,0.04730520214485,-0.494359470854302,0.119094266282315,0.159270590098688,0.148894751469702,-0.31265638770585,-0.156754950866303,0.259832269016069,-0.416672490224527,0.31960414263329,0.152651239507296
