0.340110368950571,-0.546381224636962,-0.0960079755005687,-0.411525870330706,0.249139244678053,0.0610438802631731,0.320078360828319,-0.442499322219843,0.198413695348496,0.205791455609308,-0.451668470690514,-0.379239332687498,-0.0846564925031023,-0.568514694863067,-0.454755315606548,-0.46719766467542,-0.395154153025713,-0.340048034132278,-0.429230018431382,-0.109915465459562,-0.338336183879678,0.272883321428674,-0.536326742579048,0.104215422098672,-0.560749880406444,-0.449770576034991,-0.23955927583732,0.499876138659187,-0.495174636070921,-0.118741315774897,0.101394637001705,0.0977669538200596
0.586366638155627,0.488955833340327,0.533759601909594,0.220228615284488,0.361800630863354,0.0561581998644438,-0.501785866491555,-0.469464870699185,-0.373926049049528,0.0247301447910127,0.0546537388572296,-0.326269816505065,-0.244387779514917,0.478997859793941,0.286039180874683,0.0654914160197814,-0.239288662861382,-0.362462683018153,0.38821826683962,0.518571776968652,0.092006874631212,0.480052513141435,-0.229001262204734,0.307581633861378,0.1350618737511,-0.396403819268751,0.214474059673448,-0.500606380725364,0.323399098726939,-0.188675421093255,0.0139442270802397,-0.0286284604628759
0.515193280005454,-0.417720098091337,-0.436806231468086,0.131381877010406,0.333913147045271,-0.581959514633697,0.108158015684222,-0.103108882132701,-0.15308886625337,0.39541559228984,-0.197903376308403,-0.210758157229341,0.088514667487394,0.307477571317551,-0.22092306812525,0.0625937922105654,0.151517980142331,-0.129328220182962,0.429600752069943,0.112570316235967,0.126426159834143,-0.0427700736895645,0.230390778511434,-0.14745962272514,-0.0476019281313425,-0.194877255968634,-0.323724984712516,0.0570867269013139,-0.344082417434398,-0.611708151481058,0.201635180624207,-0.374730006956476
-0.570200038883543,-0.409228767582022,0.32833254262109,-0.224128791406127,0.32023701435204,0.595064866352795,0.263487088956733,0.531073635632147,-0.124219547598541,0.203645526551709,0.481250386240908,0.321086927351146,0.283553451098124,-0.400508341283508,-0.607437297240449,0.000246206920243924,0.409893010409152,0.245782923925731,0.206645305514614,0.499490827988011,0.46323123111792,-0.56650358100528,0.368799885615001,0.257485641791906,-0.375491408141815,-0.0471705668344551,0.0989072813773402,-0.344214807269952,0.310463440072119,0.0543725238964595,0.0579912251863033,-0.0454237817738961
0.489462424234561,-0.309502681701313,0.451549371037996,-0.459948631181097,-0.662111557678887,-0.205438667252449,0.424711579993612,-0.480527306913406,-0.185599960500482,-0.0375709557858408,-0.0588447014948363,0.0871725572477383,-0.54772666799066,0.0129584691864621,-0.0609661415208274,0.191552375121304,0.0648068141441993,-0.215405430496393,0.39199428863283,-0.027328938369316,-0.546404585280092,-0.230926783388943,0.251459003101538,0.450030887774544,-0.014777720217251,-0.0850223291019809,-0.30839105799737,0.517374719181394,0.488074112038802,-0.132113695714288,0.413595114845096,-0.4501050131596
0.462167412052886,-0.0960472892485034,0.145783582499478,0.485525448301017,-0.367069270413489,0.332494589657483,-0.155018677557578,0.271315949167517,0.393066584063572,0.222743729714276,-0.124252828002143,0.106809409071495,-0.0737040871705298,0.179164266573902,0.389251081283912,0.0970297372981817,0.503419470561219,0.191939326376974,0.445013505159557,-0.042021657761853,-0.276344139525053,-0.530105908812895,-0.34581841372977,0.0480519033341097,-0.202446122796073,0.256111766874405,0.396341837494261,-0.216937792187601,-0.212437646791468,0.257865106467455,-0.183607184934663,0.0433367023736162
0.746542821737251,0.576236656881814,-0.445083447196903,-0.546901750909877,0.421231508817951,-0.40058973707854,-0.208769615031168,-0.0744421954236606,-0.266994426835106,-0.511017522879109,-0.463705933010544,0.340707570894076,-0.189316965450884,-0.279273814301394,0.459975701930537,-0.218855087904211,0.00361223798545255,0.0105887717635126,0.1445757113808,-0.411935257410407,0.0117275881169888,0.0402930519753831,-0.304251971977322,0.165581328797609,-0.0275439832976223,0.501524156968961,-0.00296605479043159,0.300147901177979,0.383868625381073,-0.426196935205343,0.192019043191336,0.340652355752697
0.395991469821023,-0.0422394288786147,-0.520772872145773,-0.322589957557152,-0.179310559044987,-0.158452441555898,0.492038759737244,-0.0816613014346761,0.112200767266508,-0.0940158979400338,0.0660379595511749,0.533186140332143,0.272604497036418,-0.278063897651667,-0.204781459614816,0.0738802823784916,0.0961275804335042,-0.325569109269476,-0.159236778997279,0.493846292187645,0.0733650723997131,-0.178222303809726,0.394303776033845,-0.458633378752118,-0.141553178995579,-0.301176333691894,0.375350147700613,0.505419130372694,0.00489002115792873,-0.185384861683598,0.298100762112388,0.146703211748286
0.453109310808426,-0.0329254469033464,0.161758071188363,0.0623227630558985,-0.145226174065825,-0.190410016846211,0.0084213510162945,0.369712484879805,-0.561523581339612,-0.250323394523651,0.265857839796885,0.470630754118859,-0.247776759624023,-0.262277525180535,-0.20722981807427,-0.0899869212235839,0.343103715377439,0.454507950795233,-0.0192524007114364,0.326881039499389,0.110230359063186,-0.291895960068165,0.217391529023119,-0.572445184139143,0.0571174208260519,0.214481298433789,-0.304464603898029,0.417575622398959,-0.154025757588814,-0.0429137219969097,-0.253298347355389,-0.0342219172168277
-0.277737583107899,0.441855626236645,-0.512618238029784,0.0283169570302214,0.285241096090089,-0.236923510521796,-0.397574921903749,0.346073600968753,-0.43890326643599,-0.210445101797585,0.274059609902015,-0.376736707679281,0.209601184369318,0.286062306253495,-0.0387742079268741,-0.248197963849228,0.41688924112166,0.410410671993632,0.252695131964122,0.340280999230535,0.49786210227493,0.0675147402887948,0.0779599341732431,-0.200531597393517,0.468114434608652,-0.11948463093968,0.475505447472897,0.0410911694466951,-0.497038093890225,-0.0691970668390334,-0.583981818639568,-0.00424598233772932
0.620654408158396,0.0465746403190766,-0.502588426283645,-0.52776460143261,0.4349322289324,0.186808287965997,0.279675467872519,-0.345672370273731,0.37334617121188,0.269017678934266,-0.494238322068251,-0.555115466053301,-0.180850594497805,0.243877309909035,-0.378768582034174,-0.444418882233399,0.391597792853591,0.440628962558366,-0.315640354099387,-0.300745092911666,-0.0553454054259085,0.234607764690703,-0.137269423008366,0.159465478143965,0.364187829455591,0.311189858799739,0.200232477007435,-0.210183315308475,0.0998654126824202,0.210448554013259,-0.517692891317584,-0.167848594593939
0.431230809909215,-0.583398360010398,0.32267614515272,-0.076547779111387,-0.0650679493793048,-0.253049400958675,-0.129492379614344,0.341392813810012,-0.571019450765637,-0.190835574018496,0.552320725903896,0.369611142821364,-0.66778683818883,0.391252623996701,-0.5959835541534,0.0155466339637537,-0.262619315269794,-0.36998730806292,-0.0028719333421672,-0.58341447673344,0.279223215837944,-0.14411805261185,-0.17003795193356,0.460584617294436,0.0587342755215938,0.119698384423836,-0.106624993791859,0.150402361941243,0.253321859690154,0.182600469077865,-0.470563918913834,0.534781805939265
0.34503909865906,-0.291936658932735,-0.262141437771682,0.554803884930717,0.137634080397218,-0.0399856790833042,0.140624087450042,-0.243828833421816,0.325913387480514,-0.131929855323849,-0.215959445940333,-0.357567927044286,-0.256787674042173,-0.380254741852525,0.201649920464272,-0.131684090022282,-0.202361241448185,0.283521482397027,0.103554754776149,0.476246764983472,-0.401578297559407,-0.0500071296493937,-0.335366229189658,0.342520717850974,0.0400712966562146,0.019101878775078,0.423093708040285,-0.019420886290233,0.0547485418754845,-0.0934478787338943,-0.214424122655104,-0.294103880972301
0.158014485349514,0.347632044211728,-0.00856004032207805,0.213194887729601,0.0570069560020038,-0.473306810328045,0.287439762502923,0.272334991220684,0.0258278778873038,0.463230210230582,-0.482489398341273,-0.315630393054784,-0.307257885138676,-0.415070792656304,0.0717597047983828,-0.301850661278018,-0.242213631176489,-0.435130560271272,-0.516746033724671,0.124679419643169,0.314735533416299,0.423233539220015,-0.459089090748877,-0.0459934089338069,0.114716629637505,-0.0127471382732128,-0.598592739516851,-0.42376695142183,0.422569004889554,-0.301103642208989,0.132285981548324,-0.216704566452012
0.343122692760803,0.0675477419575306,0.55095983535749,-0.512399195080704,0.399818331637708,0.158449153844831,-0.213712073309101,0.424355795731054,-0.211035304108743,0.0624445395690138,0.415842027588447,0.448807093646185,0.189659823680818,-0.537822199476414,-0.406799463032385,-0.442721225522815,-0.392322648203721,0.152714432433531,-0.417668995367816,0.257210011007885,-0.142756351940307,0.346884481396377,0.482412897454158,-0.38190173361451,-0.467578124056349,-0.191566203435598,0.0107268568430217,-0.288797952624359,0.410965081724289,0.362434935422714,0.0162123541247549,-0.108829887458611
0.129079719609763,-0.329636214646765,0.165904541770433,-0.429346116418058,0.323098697705156,0.351811120785791,-0.338501180919934,-0.234583944824797,-0.197255473113741,-0.332738460923581,0.0282954397629374,-0.240329358632971,0.524414704979002,-0.0378404955859819,0.139424696737787,0.273649799046497,-0.212300246415151,0.484918871237169,-0.123350289152362,-0.189650534198004,-0.315574514072983,0.317594892702106,-0.35772922920111,0.0700243879267756,-0.545084111696437,0.347087386247513,0.348904517609054,0.115083407133554,-0.145231766417872,-0.491450769570312,0.495713119868774,0.414519624269813
0.531366020507648,0.409918575794209,0.342168825517439,0.061116582432012,0.271487417682966,-0.275680244391321,-0.254157300012842,-0.536447965307442,-0.143607506686891,0.0951985121687774,0.441656106009995,-0.508621762809842,-0.100483937497018,0.435101138525183,0.21748292651576,-0.00934559546859598,0.289539231647988,0.0991073444616664,0.191635337377521,-0.0899403113172723,-0.482880687334887,-0.551151766979591,-0.0122803281069337,0.503499992645351,0.548026876422201,-0.33885595965707,0.244512795824774,0.056604047916924,0.0124667247334233,-0.089200913590349,0.0480014220315784,-0.0281501771794552
0.537764600724896,-0.122388699214226,0.426098439324989,-0.0238926699051848,-0.152491293217141,-0.0664602832388209,-0.205851652924684,0.546389717656058,0.178140653425143,-0.334265098158058,0.165277413872412,-0.282015184747101,0.530603815445204,-0.288792124193261,-0.238087365870377,-0.487381389044494,0.393613917450655,0.203633141024494,0.10182441271726,-0.543077582230292,0.119326972298077,0.542193123346858,0.072744576033775,0.306438248645013,-0.302855433433818,0.498343189848733,-0.189220199224915,0.293453885403659,0.265066651939247,-0.0890452431804666,0.49272656680457,-0.420221873919301
-0.542281240748672,0.306471054711881,0.166423567308695,-0.11558309803967,0.381138245898799,0.496802233829868,-0.0914428628799431,0.400227403665401,0.47386549967161,0.487349507936249,-0.368002564145714,-0.336599003925055,-0.38249134027207,-0.497998574799075,0.458446868255256,-0.391267774147434,-0.0747557874570458,-0.259914293480795,-0.351316748082101,-0.251513980460461,0.38229742934613,-0.0765683068073416,0.380060227664093,0.416753617406797,-0.325903940784742,-0.488218245854466,0.527565617072451,0.461943864915132,-0.258243467350406,-0.55654715200261,0.497433312608485,0.526906998953202
0.28730613739887,0.37521057122899,0.479889382431383,0.291628314489738,0.194323142332187,0.160211586130106,-0.460569461437647,0.00536387902949117,0.029406305590888,-0.328034755527897,0.457356499791919,0.412232017007413,0.670283687534019,0.162718221640244,0.0577670674477651,0.23952918740022,0.437549283868758,0.392483233337375,-0.159350065702377,0.148205681654976,0.0482426105970391,0.509830688171987,-0.471070457787068,0.312976464811349,0.536791896242698,-0.155620271617781,0.58948476905585,-0.019188739972292,-0.237622003584187,-0.0180282920308342,-0.330799199770757,-0.448727616459231
0.462604705051361,0.0774135185214514,-0.160095460856259,-0.543699013951312,-0.55210413680286,-0.0204711269756751,0.173803465299206,-0.242402878738746,-0.0849607081595665,0.537920957317532,0.392581388277557,0.0161923975794844,-0.106391174680595,0.104706361916424,-0.0759165744471482,0.60628245561101,0.300686669466951,-0.221389935171569,0.33417094822176,0.560574485673919,0.248284267187333,0.0202857857426258,-0.284896673565904,0.180565565990593,0.225184301386789,-0.413983798323456,0.571675484914349,0.202351219590732,0.508841558346386,-0.188795925637288,-0.300750164638578,-0.0952272785480196
0.312706140831173,0.215963653034455,-0.497168330781871,-0.0792998949272538,-0.333161481396388,0.442404828234939,-0.244549079947026,-0.200664445250846,0.0906085352460936,0.00503617405648839,0.0592381453789623,0.138470199111521,-0.35730716327312,-0.483835043260498,-0.153904329189153,0.293118014593191,0.264269036307336,0.468063978342908,0.0179858292671536,0.290038459649468,-0.199073281962921,-0.521895533447097,-0.444326153390131,0.064497980216082,0.528692892315717,0.400911831549569,0.0412045441891631,-0.0755187458190297,-0.591521393449354,0.433382945493975,-0.399558882129022,0.104498609298502
-0.360791353919946,-0.45363146378539,0.399564898687735,0.262630878388003,-0.184993630577994,-0.305274774234716,0.479938091163323,0.335703231011648,-0.176420542986717,-0.402816416940124,0.178096532348388,0.109366598026811,-0.375638278120846,0.45749263716626,0.0553817109361702,0.61502487422972,0.484484317460764,0.254857521758489,0.424655104658917,0.0107055618646077,0.114367376690591,-2.82565682508524e-05,0.0938445297218991,-0.354098181529255,0.461568312106055,0.163925341766042,-0.396521501328522,0.0562655383419964,-0.580768746135155,0.0644173640073083,0.550389381965587,0.566964481995342
-0.530960572464343,0.430025504851564,0.272700690893192,-0.322064334536101,-0.193303629554872,-0.133736205446056,0.177692647865644,0.223749105723299,-0.454024379461378,0.238681578928177,0.427874431760387,0.320875475187206,0.349606199881308,-0.0332512666659462,-0.537333697067867,0.242429049222839,0.280655292971547,-0.243675554824855,-0.03579562946011,-0.422963064320836,-0.290578913276356,-0.475494618308084,-0.159390318092075,-0.581266072798667,0.220427056142174,-0.156600334096389,-0.318415177649613,0.421893675734889,-0.333517866113193,-0.140214381592645,0.501677773842328,0.622780447045874
0.0861740438323762,0.0252143538415482,0.148379036915083,0.045567385451956,-0.432640229712788,-0.157664317774648,0.0228734951295935,0.328284062351318,-0.539424154263086,0.0923509941215194,-0.308038402532196,0.195102213708025,-0.343388140258747,-0.154084910217095,0.53533575011905,-0.554256824268689,0.142325158419175,-0.0107065311458766,-0.269340711459356,-0.380366369607156,0.0618530258066171,-0.368146400004014,0.106662380068621,-0.446342538340311,0.0673120117676509,-0.327511172083818,-0.0124407785495466,-0.0895808866337591,0.309649065337766,-0.288189231165159,0.0841730195168782,0.534337449515315
-0.0805197852196043,0.463657626342325,-0.50295321905124,0.26785524951423,0.551400324162121,-0.277200824445925,-0.188046864460845,0.461155811451812,-0.282751540844942,-0.204619131569962,-0.194150322684281,-0.0670721646925118,0.212343704911323,0.378810179312037,-0.158246598543721,0.188747143281963,0.0467521206325212,0.391227728106331,-0.511018382636736,-0.388666541511657,0.16049493817038,-0.10307596785973,-0.331296551848604,-0.248069823421044,0.42583969241587,-0.460595499656349,-0.102869757427401,0.00792854570711588,0.408735597495955,0.402554375536967,0.25136076931142,-0.304935190753021
-0.432483319601148,0.238269323254746,0.0942194234535615,-0.32301767848319,0.446602941898559,-0.506400004101952,0.255977523818435,-0.211153584652546,0.05021796825461,-0.316287324927148,-0.319572256954074,-0.465947609415518,0.352266676158021,-0.078030371857217,0.451579849572147,0.00811570994346992,0.276647512997242,-0.361046749988939,-0.445403974766871,-0.317899609302068,-0.544723924512868,-0.071278498944348,-0.264007713070753,0.548697784794445,0.387045611682015,0.0681835055311465,0.383419419404158,0.473527940279829,0.122318815554322,0.445270535725946,-0.695716082017413,0.0692669887685372
-0.116813584410086,0.219855828003419,-0.0260744665132108,0.507458677992196,0.491164112730397,0.38792931451959,-0.260967093291811,-0.180717408583746,-0.00414237616919991,0.157321689131579,-0.20958133748712,0.554758333699164,-0.381585226212837,-0.159986826141932,0.219452131640828,-0.448890104486354,0.0750784190821824,-0.376221507889337,-0.0040835234293103,0.291170595335171,-0.126769289438101,-0.387518881436229,0.525867138711031,-0.190125939047313,-0.183809790031696,-0.307200196717469,-0.495121600609015,-0.490687702455068,-0.0859046693083346,-0.331642793058264,-0.329415685467317,-0.057193139126644
0.487118624032729,0.136583760321185,0.339164914739011,-0.397083312640744,-0.444831461790222,-0.264995519108165,-0.274239332793766,-0.188978769874693,-0.365495171169571,0.109738577157674,0.385635408510139,0.117826897606807,-0.108753736878042,0.223479375024386,0.0478046242740363,-0.367167348027925,0.211791332561107,-0.457525811005232,0.516855855669725,-0.476240237010435,0.442475077713053,-0.334229316792135,-0.320898722372782,-0.225924885223583,-0.140742197293129,0.126337560249275,-0.49181632118396,0.328512857871839,0.244921561343165,0.0567004908522988,0.00892318648655825,0.279164814894536
0.134005018484551,-0.441135129886096,0.233791749436937,-0.548473468097717,0.31806666457436,0.50239117387761,-0.199623471965223,0.0258069211063193,0.348321746027283,-0.0960050237887343,-0.143905188347085,-0.236421352425574,-0.0534544967635364,0.122003648380407,0.462046196848995,-0.0237759717442823,0.298678925389986,-0.340370300521055,-0.134952967873144,0.326579770591334,-0.388441367229772,-0.391858374490153,0.475691479614487,0.379804652661419,-0.485737584820213,0.165333548735698,-0.18202526358429,0.401048910580839,-0.197330173014039,0.532397496432715,-0.00408425141245409,-0.312123398839319
-0.188763508300987,0.505418562645903,-0.176194706991532,0.204596447650417,0.0283336226029813,-0.103219588791755,-0.17105683350682,0.312928011080679,0.313253273127239,0.270318166913601,0.199993423977422,-0.380260442253174,-0.371242923089943,0.398985850858084,-0.500304476907982,-0.0422432943636708,-0.447777885508858,0.6202664029454,0.0281210419610978,-0.53423043454469,-0.375696733795019,0.0499131924651992,0.134224737186406,0.280738824794134,-0.0504156677940397,-0.0691542201314702,-0.450688215705539,-0.46320281717829,-0.337179592651793,0.104361730724729,0.490935309160798,-0.0986749578053274
-0.0987235403499682,0.0223696672422323,-0.132088589195343,0.48580816918441,-0.0255934372796117,-0.50582293963054,0.0206570921989113,0.386117348634771,-0.235398001424498,0.0495755811721237,0.172719174378905,-0.472251682722995,-0.182399812575483,-0.195141637890022,0.517997679379031,0.489255373048279,0.122080459797477,0.406340005663935,-0.531795665382201,-0.140858271954279,0.418990390136435,0.187780969339248,-0.479439872756544,0.0764679430125044,-0.185142659303059,0.31690363737134,-0.376238593622675,0.597587791464696,0.31035035093943,-0.498829362462436,-0.512877231628751,0.473804399777398
