0.539592366215982,-0.244155614625536,-0.265306681986764,0.257508544073949,0.461725835166252,0.538361120967308,0.186575885423828,0.350278359231296,-0.0823610368998297,0.214360629418842,-0.130618616872281,-0.587779680497202,-0.230833752075804,0.364949404337848,0.0478719324453556,-0.461180569971242,0.0364060646500096,-0.326520986247561,0.739595132067469,0.364197228102972,0.43534577465012,-0.112672612544155,-0.24731554371217,0.433528275485371,0.402453787418971,-0.0323684736717609,0.400935604137412,-0.316251392690782,0.432405748531943,0.259770696629358,-0.220784043073541,-0.341180456766853
-0.223379084694672,0.358575174591732,0.530141763427527,0.00309865463012013,0.223240840459764,0.284633655208808,-0.50692398301969,-0.390399212167507,-0.102844959350326,-0.114568594197188,-0.299057354829401,0.558602913983727,0.203943323445958,-0.422380002756163,0.651094015838574,0.131645955460618,0.0126320357243112,-0.154652385058363,0.194869052994719,-0.43454177804441,0.229401622340903,-0.354364226957845,0.120922191096808,0.213969634198482,-0.221596835573828,-0.148782336174448,0.386029550445617,-0.126232420360388,0.137865939640874,0.466898793247905,-0.192684022210845,-0.0967790049009359
-0.512596229059567,-0.382805486656075,0.314872799228284,0.497299654736671,-0.509204503864764,0.335587634611548,-0.0344332575930458,-0.331609103980283,0.44582893963142,-0.465427515818432,0.531474667842379,-0.240934538482971,-0.0721257166564886,0.491329709423709,0.0439534033100758,0.270359942925299,0.0820351369426612,0.579968756848014,-0.144720176747472,0.320830124939281,-0.443106277379347,0.478017880251903,0.37856839360189,0.0457124497930028,-0.230285096586808,-0.448504729011642,-0.167048287900956,0.468789904453115,0.179452421449882,-0.165187267720551,0.387794407927656,-0.645334402152126
0.335791617346798,-0.226442852873209,0.417920350232648,0.47095628660955,0.616364789583608,0.259770617157021,-0.386071126095428,-0.294897627946375,-0.213593040061522,-0.357470833602933,-0.176440744934206,-0.627886049732458,-0.332493168187297,0.533514815117202,0.0790054664757244,-0.347552727757471,0.485982873915928,-0.367279663762299,-0.342381569067072,0.138051391982049,-0.209934018595361,0.503520814196138,0.189517624266639,0.10356669261542,0.126674853061042,0.226960003377172,-0.33562168903437,-0.294980109809241,-0.318764537328264,0.637123692929028,0.35766303425341,0.0410928710433618
0.564043130009895,-0.0461333736207505,-0.0700122184605004,0.242571202155065,-0.51120609053244,-0.48607671992237,0.2162981449282,-0.00461774256165348,0.364068102233565,0.169273260807698,0.306509179062436,-0.181930525612434,-0.309845754553598,-0.261169267063573,-0.203004040215467,0.633381449032044,0.501687787864575,-0.27192073556961,-0.375535922685977,0.418621362030703,0.138065073980139,0.313706651599541,0.595060572905621,-0.405311623104818,-0.343859826376244,-0.302249162195739,-0.117701875899047,0.166997041979445,-0.44286818344097,0.0797491386524027,0.402966056891085,0.248451511017928
0.344576124239453,0.380041960101692,0.452391552363616,0.153278421639728,0.543591694900866,0.312829148857021,0.00706271975285128,-0.472342096309843,0.118645312900364,-0.0674838255856523,-0.215248744740019,-0.244021000349453,-0.49872976397594,0.00489910687006771,0.59225634804763,-0.266256929361313,0.464704621537748,0.424011401518881,0.159009168781732,0.379469960256634,-0.210139948791093,-0.0405656052596073,-0.663743091574943,0.50943078179338,-0.199374168024993,-0.49015638432907,0.0328822238109037,0.534322664804582,0.438427714829129,0.111249184721692,-0.291707782370773,0.0970254661098488
0.350449286258013,-0.370627404050741,-0.250448794629054,-0.506852818893297,-0.174827215216099,-0.411810756144965,0.161508786090849,-0.224608561359328,0.469130094934777,-0.0204616886609575,-0.293863812351217,0.116267885796158,-0.378769976980001,-0.378468716589373,0.425355786942893,-0.299519879924972,0.489332539646828,0.0795108017604381,-0.460206424616757,-0.355133010711338,0.335843158382808,-0.235638455838322,0.404539527154103,-0.17855719375121,0.261806408219794,-0.0908936403138067,0.287878087737521,-0.346526594789548,-0.304049570283275,0.173584653389685,0.130237885789773,-0.580076391355597
0.335486646264737,0.611634900295101,0.28263382417079,-0.250996626948622,0.394638411271175,0.0309785710601898,0.561280202960523,-0.513839334929048,-0.0250359641627188,0.3289563613867,0.373369983912536,-0.375443706645165,0.382442243101123,-0.343144349353512,0.556742336463711,-0.0344118038326226,0.421445828039563,-0.478520690299562,0.208462174407776,-0.332975386655782,-0.372764227842439,0.466498619993879,-0.634197333469483,-0.194150492831706,0.29324656571726,-0.498504230484933,0.479339700125578,-0.470138650454048,0.262651162923366,-0.441955810851691,-0.509891533907075,0.500497315168959
-0.223227184365702,0.533945526297707,0.410494253864703,-0.461080621457108,0.178638929231749,0.274775082837971,0.486586365345831,-0.234428100739037,-0.48566760485793,0.358472178562255,0.414207741540581,-0.0318817630009037,-0.202778432263019,0.576055313162985,0.109103249568227,-0.523511783429995,0.57468223478349,0.491809617601859,0.612378959095495,-0.281958971537208,-0.281451536384215,0.100918384791999,-0.575061303368962,-0.43370177215438,-0.237269613125655,-0.477987100879998,0.269765857592902,-0.0294586706388609,-0.522861261732661,0.182698885891882,0.0544306844877358,0.456071698534353
0.27485745431062,-0.00843910118581832,-0.321066499678987,-0.293051044209883,-0.0937613135210715,-0.158190776223295,0.0594705092862499,0.3064169031119,-0.388062704484201,-0.413505233494705,0.0633130936772066,-0.47391662591014,0.109391349337479,0.129745394688353,-0.0870306111001119,-0.138139334947926,0.0284990367077897,0.131034098046493,0.698367165460512,0.00170696810115177,-0.143451650661314,-0.079988157046665,-0.436306763780451,0.201442749644125,-0.105010775800471,0.148010946854765,0.543043141719034,-0.388598788019099,0.071908235923111,0.378084728880024,0.219492044464276,0.402572973109562
0.248659665151523,0.414423376610951,-0.442469133722016,-0.213738940765096,0.443516559577311,0.222088819680414,0.444183823903145,0.426150501668514,0.393033114963678,0.145993028035469,-0.0039902451799536,0.0940870313157289,0.246654041749045,0.35620380982432,0.0132767574087506,-0.187865985466317,-0.280241814660807,-0.422940749116244,0.433087377094725,0.20533663699397,-0.323092820902817,-0.381905379106522,-0.464328182149622,-0.18295235303357,-0.493992497762722,-0.224263184890278,0.522045002361602,-0.378213935899397,0.279030351995523,0.258368349647875,-0.206068353213331,-0.0358069445269987
-0.18826620799068,0.388722544048923,-0.152540563092299,-0.387272206412531,-0.0188820295281851,0.0730710939051392,-0.358267775504223,-0.198987812127019,-0.0234257722418238,-0.0477151019213251,0.151435022086657,-0.310936440886591,-0.183471565413944,0.185092653091763,0.392909049935884,-0.361164332457068,0.37845976998878,-0.371862386880752,-0.42050468705469,-0.480855316612281,-0.113055752916254,-0.563514236938577,0.246198060359636,-0.581310772587618,-0.024112939124515,-0.275697359161621,0.0249363535240206,0.200933331818667,-0.272760660811306,-0.639942237554756,0.376803168641448,0.286733148738898
-0.249617019752718,0.0476927022646188,-0.117877490154966,0.262050845704729,-0.211218762014422,0.645111930220588,0.377493371571505,0.461453380970788,-0.131370642248989,0.532960347390583,-0.559960038680977,-0.371814405421675,0.561994118099123,0.268677597764748,-0.0611489621756093,-0.126443382525479,0.54307582192084,-0.125865831988554,0.539515428595464,0.174045090767145,-0.429732778683825,0.0201925706375389,-0.34019143506538,-0.271861766664314,0.210758699266086,0.166305011757928,-0.416975202723302,0.523908036252783,-0.48846693602593,-0.248759689608267,0.168750546488499,-0.0466330344627444
-0.245149164901111,0.230106423028527,0.137881139593005,0.245662551446222,-0.0252576545195644,-0.408050008453159,0.421805769489542,0.0317490783391132,-0.532068212299956,-0.123006457570549,-0.510604622770371,0.363571452174854,0.0671247957029367,-0.371683851953597,0.410258895811033,-0.541751957767117,-0.0899912005945914,-0.444278795650719,0.425645868776382,0.0876689761847647,0.197678667401614,0.0880301994871173,-0.127767848155078,0.539962588268088,0.0575835081621125,0.114822100010889,0.512664253683174,-0.379526740435999,0.307930288669682,0.553590038073845,-0.0149694495538601,-0.0166865668793654
-0.266321689231963,-0.312566627394514,0.114384238752565,-0.049035234069841,-0.065720032553592,0.525048811326294,0.0915636184966031,0.416411557502255,-0.530351245640926,0.46625965100815,0.439696828568183,-0.500653102472027,-0.307213303222525,-0.385964882402007,-0.435375183315999,-0.506496082319615,-0.114620356131713,0.269065912252834,0.311886854234803,-0.279033858836932,-0.126823794557344,-0.438475695442647,-0.508603738539862,-0.0633004801604115,0.568048767540209,-0.218309800933658,0.354899637145522,-0.017516655944658,0.623749435580099,0.0339973017360533,0.127213034307141,0.0200138013968309
0.567666875799477,0.328058204615474,0.260317611008146,0.384491517740053,0.334467370246058,0.0362270443658739,-0.261589299926333,0.340070601587221,0.0472914119226338,0.312826357855836,0.215392874696303,0.200854438970842,0.127915293714384,0.29304728566143,0.242162810235052,-0.290662470962862,0.383542258862779,-0.352857380697679,0.411684733163442,-0.534205013081392,-0.0873444790911694,-0.362586289717789,0.201645325913136,0.00173457548784581,0.136742503370982,-0.286864807894259,-0.540756194365594,-0.132206296388264,-0.0045534182368701,-0.269672013725308,0.1477292747131,0.532546441562867
-0.198922471196561,-0.145557861299279,0.0340144203728626,-0.116390359831497,0.0629066495714179,0.197173661017265,0.434724772690949,0.0117312594832823,-0.118658274752668,0.411127736943057,-0.303228435330292,-0.277141356026642,-0.108950323559187,0.13670656063571,-0.23465111213667,0.0293604546596346,0.44323512386919,-0.172556505708222,0.35483798677428,0.215360263075243,0.10770672207407,0.237011845247511,-0.347778473713651,0.171190921320386,-0.215030539063641,-0.373321109478753,-0.544519323405718,0.18843042745022,0.547550545722085,-0.236624601039693,-0.0635320013302435,0.384516738096704
0.305196347946535,-0.466919175049962,0.0440379648246495,0.130250018664394,0.167636684457698,0.58732433578173,0.110378910833751,0.367991445924128,-0.629666727138932,-0.0934870236537652,-0.58654910502886,-0.237344707824836,-0.166125227414314,0.156160497830725,-0.566900479250569,-0.0040416958947358,0.513076334016139,-0.0157606745626665,0.476753500089175,0.396017471345479,-0.322384892935503,-0.0625121340026889,0.0715098605109935,0.213517934033239,-0.426855420833783,-0.459039459269366,0.225054416957701,0.0994041371262007,0.170460429371847,0.504045243109313,-0.365469391233978,0.13352309387429
-0.00118501521488957,-0.42594679592227,0.432035824467216,-0.276359973737147,0.396634658189504,-0.234994230797863,-0.37447884959921,0.477055231422151,-0.186696614825571,-0.336858712789743,-0.483904433889962,0.471433447461178,0.122742065767333,-0.309633408669791,-0.292604105194705,0.0255811249122589,0.105578874592544,-0.407084341677938,-0.562229130055951,-0.271065433885754,-0.0758268183469576,0.54746888011231,-0.0471215251893669,-0.436873786100197,0.1435499611325,-0.350882277870769,-0.111827642720993,-0.120947305890713,-0.54837015467251,0.178751475301857,0.517934931261676,0.337003785183378
0.423987330340325,0.349859432901109,0.524014895988636,0.330030639798439,0.25104512527815,-0.0611498370077001,-0.095852062998385,0.0924073158443679,-0.731700715219429,0.41229403430808,0.131597580938352,0.0829720685395885,0.296555092663374,0.379039053087973,0.174153192737577,-0.150574846560483,0.62731056671668,-0.073682277698727,0.195329790204002,-0.355075004031563,0.187606398978073,0.186382960312998,-0.619715825360742,0.35533440042445,0.312112090340439,-0.167777741397589,0.433330919889101,0.487982887239066,-0.0961576656798773,0.459482053090298,-0.117888907413934,-0.368732742777778
0.00526244916136353,-0.334451445390041,-0.0322898338258558,-0.247971377997578,-0.474195044916753,0.356737813074456,0.251075100759223,-0.184020419541418,0.553301503478003,-0.370625348484841,-0.115896776517021,0.378074361439394,-0.40388901469336,0.281469045617843,-0.17892884393349,0.51055074881218,-0.397114861613585,0.0207189576055622,0.268120211436158,0.0886975684999001,-0.249863992312588,0.293982339263535,-0.106225509506301,0.18126933370899,-0.00391602322921594,0.265570522608121,-0.4518867944631,-0.350446384165225,-0.49170018325863,-0.466395578519558,0.085188535852267,-0.231130790100107
-0.292081778850534,0.556395268474762,-0.174864370671075,-0.0244141019752804,-0.397940329938749,-0.389669369435178,0.536851991158599,0.465609681601568,-0.014656771932658,0.0479164052022973,-0.0266354548095741,-0.534616066196008,-0.305260177772088,0.21713873175111,-0.0312791923626744,-0.0585432873802363,0.502637180088801,-0.0492159196166665,0.0497631052639673,0.118506297363655,0.36870832977941,0.728939221094382,-0.115930151587834,-0.405512533190766,0.149728831641246,0.115442814358248,-0.559974224094101,-0.438913916993801,0.416800547773817,-0.112553743079408,-0.462799776613224,0.733446995056158
-0.569204586449659,-0.25675950537499,-0.381154891665281,-0.293628135456816,0.104219010359427,0.536956638910691,0.441423787303137,0.328578775468967,-0.221634649050184,-0.235226981381907,0.0952563312729193,-0.0794782853178717,-0.338921786323421,0.464144424403313,-0.555510644055776,-0.10587474943416,-0.456323745354414,-0.269606696661009,-0.0222135963829448,0.146210178987954,-0.255808803086216,0.318737062892718,-0.0997409794894138,0.133105392169693,0.386110020039644,0.260709205390562,-0.0321277603533061,-0.310338513346393,0.0587933020306103,0.645650588310658,-0.236539486165937,-0.0902127265670528
-0.298121117578815,-0.126477067693045,0.484811057288569,-0.0390905644784239,0.0761743625588471,0.143357065774584,0.394172564401181,0.127687287390228,0.0774637705925679,0.027784840876209,-0.0916629828932034,0.0298112811994147,-0.241826584364161,0.135722285985373,0.0645556339799271,-0.142774629792639,0.0227043454354026,0.68582178742545,0.400817801551265,0.0812438421294437,-0.180195424697182,-0.400860859364819,0.137522552028162,0.102368816627836,-0.111889968420116,-0.112464137457217,-0.425860819977298,-0.248905440137998,-0.101267266810866,-0.453243402306018,0.295614397312793,0.601444863461629
0.42307803416152,-0.493883077066728,-0.447343912114719,0.00684709600440569,-0.33135169079573,0.102970286992583,0.378431021252724,0.213338897776976,0.131889951003335,-0.444686554974976,0.49961446812376,0.103557338088128,0.470384991209932,0.309665148800992,-0.472959597939126,-0.343516010898486,0.221329253274971,0.540381111827349,-0.587617212510171,0.423595786467008,0.214120742332102,-0.177598849916749,0.262305287553305,-0.5089455666299,-0.21299978379994,-0.633840411140993,-0.0366434631073359,0.0595640275869106,0.198626810961885,-0.207641592233417,-0.418255287717179,-0.567536915865971
0.157045789188197,-0.103598985919537,-0.131192792542527,-0.156871334783269,-0.135476153873373,0.268383295116707,0.510926049845373,0.306303991656616,-0.29996976587874,0.161704040989051,-0.356841186109156,0.0949933664199316,0.225099235539933,-0.352921011647733,-0.217046230481352,-0.408746983502483,0.486937378956265,-0.00878450025486026,0.43886606107008,-0.0443448016962824,-0.133044204551954,-0.0664905728928764,0.112341093223423,0.166032105834113,0.352323339656695,-0.109906191017726,0.561901699859519,0.286565163155034,0.419367605037485,0.394101920250323,0.251960300219089,0.0182861416979869
-0.327067669005602,-0.295660699902841,0.0762465600293332,-0.0326374352286318,-0.0257254929789596,-0.477764553565522,0.190739052517972,0.0296789747219726,0.340672533705058,-0.0867378492166038,0.322337910162346,-0.161788618715032,-0.312479494103387,-0.0789025582868622,-0.51656320974278,0.166127315151292,0.138388736711602,-0.355910669318572,0.123755438209721,0.298233057435813,-0.0664151269556548,0.237222068625388,0.630556249259969,0.129602498290662,-0.0894734831968483,-0.48267184558861,-0.307699479403963,-0.0977500222630547,-0.173602136978821,-0.129519267873922,0.0746694071170076,-0.521504387761795
-0.527360939379147,-0.50163771738885,-0.215673038761473,0.110834211180522,-0.557057022096492,-0.474942376093479,0.177465227595855,0.0217359343091619,-0.182720802830157,0.361435828614432,0.374924143360797,0.264987188116109,0.442592178774874,-0.190863877575586,-0.273993669344887,-0.202145669893915,0.21707696411102,0.118154325745875,-0.495427249041515,0.0195629698426016,-0.143349334773543,-0.249548438814527,0.242476600633525,-0.130299867878359,-0.37901764089373,-0.544669220752344,-0.488953369562508,0.479671082803192,0.396776296647321,-0.15921087227761,-0.303544378772042,-0.594538004137144
0.0192211885831738,-0.0807057029767395,0.343676203194118,-0.0628660778889266,0.324388178052802,-0.329610327451018,0.24086014862964,-0.0549795986046696,0.797306523327646,0.231972300489815,0.401195546334852,0.379454548447898,0.338958369620993,-0.308126336494047,-0.0807646608478279,0.0791979083875433,0.443489795257499,0.540390572566095,0.00541142756001336,-0.0345261678315994,0.499684643024301,0.336308928042146,0.14112911191256,0.448350818574991,0.386271016634002,-0.149976100967396,0.148271423385862,-0.458333521452982,0.118961469371095,-0.559343234338426,-0.547693015290922,-0.34480652571178
0.417382115225039,-0.165259536547446,0.49779800891741,-0.470170938024565,-0.448708154803128,0.0194873021804704,0.202030198796252,0.166878838711675,-0.466670872297636,-0.0241187083334343,0.158401231465514,0.332169200378379,-0.278645317888477,0.0854335676415166,-0.154221535947367,-0.469161364715731,-0.176689602541382,0.354039194088601,0.420773563668578,0.0346994266303634,0.206393737170048,0.49070621439188,-0.564471347792912,-0.28341333910626,0.294014176640128,0.245368489290301,0.517480533567141,-0.18751907849131,0.238273300884118,0.635277659789096,-0.338953108136308,0.100425490812616
-0.484956540032182,0.14433397525316,0.116339917155088,0.141861546995494,-0.399350744396458,0.102274334313319,0.214269845847029,0.246762830495316,-0.298181258947891,0.0762216514457325,-0.222846356047908,-0.17648758362074,0.172942570574396,-0.398336533413648,0.116927135966695,-0.187081937193578,0.484472983807506,-0.417004034636051,0.609837284832465,-0.333575094297078,-0.124626012754607,0.227436665519023,0.459897920469995,0.270996070389021,0.146975841310107,0.338688342212338,-0.504003651356896,0.215922797737987,-0.485260196206186,0.267553033232615,0.039573834971098,0.148027771844137
0.511285960956064,-0.25992780591273,0.0550216703983089,-0.420518839859757,-0.0380351100716287,0.0316285054962893,0.139366307224068,-0.557575101487481,0.567049352692565,-0.109107004012663,-0.092583798367795,-0.315248220510059,-0.0555954976594844,-0.452050909733609,0.508466428719569,0.07654557785806,0.434016474939403,-0.107256172038339,-0.277247085052535,-0.137087494147178,-0.0627007634897398,-0.255310785190371,-0.0463573695067844,0.421468876093876,-0.42326549584949,0.248175877189708,0.0620880139992104,0.383948792393256,0.324756641326512,0.410163476368735,0.217303259916229,-0.328909082629595
