0.0535034162069631,-0.533308560330491,0.33657565708859,0.35309982752785,0.392752725731513,-0.460448959763369,-0.265337266806927,0.132104808139455,-0.19962036710758,-0.126388058438655,0.0770392355092169,-0.273249256986503,-0.379090187633991,1.69871728081844e-06,-0.346260935536469,-0.0525442433762457,0.114493121135377,-0.0768391466754222,-0.01905219862566,0.457866015898969,0.328789871646442,0.411264042893185,0.499814713942032,0.350632031399303,0.493396581999416,0.125640692412287,0.100497944290927,0.445481414401102,0.262723440712706,-0.423118068234484,0.46221676112201,-0.391071538818226
-0.156182652162917,0.436889270636095,0.551000083811184,-0.420120703886374,-0.199553504369408,0.168237156237749,-0.39670124077337,-0.222930891713108,-0.252426735205636,0.199879287468774,-0.116092629661703,-0.440138841672155,-0.329956206598343,-0.236004532986893,0.44009019966678,-0.340862486685383,-0.501446921722774,-0.484360800701927,0.460249578836032,0.0600044066243638,0.239760141078521,0.102432188716176,-0.259006230573526,0.493185081686812,0.401897117006635,-0.0368244636063212,0.215716657558911,-0.252281920242549,-0.537469907519214,0.332811556121395,-0.0289166630932298,0.547158623271321
0.283681234530236,-0.393508332092698,0.456786578488575,0.361853064214027,0.26358058708657,-0.0353592560146085,0.467136091184162,0.0250834609452793,-0.000266158366158349,0.503509630120648,0.370936697199145,-0.372542681834237,-0.430526818124968,-0.167164493510373,-0.213169895405647,0.537708981082906,0.57226162904833,-0.498709752121599,-0.522584285529059,-0.144121075017205,-0.194974496142716,-0.375601484225365,-0.0588813107552224,-0.346993904691706,0.00955225367087613,-0.229095701005716,-0.142756211840062,-0.0210502190418787,-0.515116289805993,0.172863913607146,-0.253030726424886,0.232862635992829
-0.0707652432275398,0.15105617426706,0.323200880504937,0.516976175133433,0.547232252502582,0.277055021646353,-0.626563480803796,-0.415144740311975,0.41413990649354,-0.35421841186771,0.259696343817484,-0.449065055205368,0.109147848423941,-0.42755394804306,0.0295431280449013,0.195779433848712,0.333663756632838,-0.412304762547777,-0.386006301451597,0.286441190349377,0.254983020757808,-0.141922197015941,-0.341783826760179,-0.287592960389048,0.381089605335715,-0.144481909088334,-0.511842970755462,0.219342357468261,-0.155124663825551,-0.128086470859538,0.0736244109164147,0.409065180162819
0.493505520137138,0.366704578013969,-0.343530198963712,0.0874122367518738,-0.484409203158952,0.482043167905522,-0.562575320903585,0.366526672730438,-0.0483598966503195,-0.222269627088176,0.421626588716062,-0.487349009741477,0.138792574778075,0.20899067715289,-0.443292313372483,-0.320906963724802,0.459987820761323,0.081945538814008,0.394868207801896,0.0612218978878517,-0.277633705964778,0.272066528877968,0.559289903011287,-0.182203082690527,-0.0550197867516446,-0.436393377450319,-0.244149778289654,-0.124238833475944,0.10091877806561,0.197918490064287,0.274838856243122,-0.442344117093668
-0.532629540833998,-0.528292029070994,-0.468976783041094,-0.0634525360628013,0.557347476518618,0.153257650360512,0.275008465379649,0.433136690550963,-0.0519806629143609,-0.326276497369636,-0.0391197291077896,0.470320300179144,0.238774078507566,0.39035237984678,-0.355280886256376,0.322068685556966,-0.110964202640695,-0.123954767879505,-0.0942120295114714,-0.0101363722528721,0.0125244211594054,-0.254817764215901,-0.27123879898732,0.454689788197412,0.371703864455893,0.302171070313451,-0.233437929668566,0.265251442534642,0.0781076079493893,-0.0406668385246811,0.469734722747615,0.534310322076563
-0.141686235473085,-0.140549190263887,0.153093718613498,-0.271294949558229,0.223005057460529,-0.102001338877531,0.429675676555218,-0.224039255522163,-0.447738998502639,0.238813401946715,-0.111772989618517,0.595468148888324,-0.482405012322348,-0.557485553404149,-0.146215756701183,0.0302623978547153,-0.0476919600539325,0.391171727764957,-0.536911563627736,0.110525667817533,0.489960832492381,0.480701454441045,0.172006086453407,0.461174716320799,0.297749320625626,-0.320690595089205,-0.0713998017917561,-0.00736726889624657,-0.499238175447682,0.0083118012979089,-0.425171119927054,0.475470528756903
0.0962899016620504,-0.124067164062559,0.0951603209533269,0.263746558763712,-0.276242032075725,-0.189830958251968,0.195152735013021,0.226809543119687,0.394261816700655,-0.339221577603884,-0.46640962235595,0.392784217392578,0.141720458036064,0.408391108628402,-0.26200470893445,-0.233348595782177,0.442795157981747,-0.0383595292280173,-0.160781031517619,0.448222875102705,-0.348456528817852,-0.565390514082088,0.176059121637838,0.0863212098691111,-0.551752634911789,-0.0368143614261213,-0.020230692877555,-0.47981186174093,-0.320902609019231,0.267033815920664,0.482072652447308,-0.196940551499352
0.360492216402096,-0.339284586838725,0.0372794643093558,0.0676259838054638,-0.362396132321217,-0.102573898826761,-0.542941222099892,0.00961189637998182,0.0265283649880134,-0.134476740355183,0.417681319896711,-0.392790591753834,-0.361246124414488,-0.447415756736158,-0.301342395561786,0.20391018266654,-0.00797673363260974,-0.296778154954507,0.415224074524608,-0.546903086834233,-0.102755283227466,-0.178290148910908,-0.136661498027354,-0.368186457052428,0.306885137308834,0.158004029123372,0.312202116281138,0.0748774330982899,0.243102884991958,-0.377363232819107,-0.218156652144311,-0.578928744356753
-0.27211342763618,-0.133189535439022,0.0717164867231567,-0.00898741349733078,-0.53922793329214,-0.534846692471206,0.439560110636184,0.55573315000102,0.0592216329650336,0.155582499372786,0.197521147252327,0.364320801380916,-0.364103260867351,-0.154642999548448,0.455672102277239,0.336406005411304,0.0648270259168908,-0.178260099677201,0.226189881266347,0.191156623926987,-0.450267160633728,0.0854448071855284,-0.0560957674430942,-0.410581389326974,-0.164467314565251,0.274910138501144,-0.564229793889476,0.378478303107518,0.184498982165198,-0.403491432883153,0.238929038260864,-0.439661740667635
0.0738323533317916,-0.399541280569215,0.317250050973405,-0.330734706923263,-0.300637803338338,-0.122409839315372,0.352349285279031,0.108868871489609,-0.315359675965495,0.00896726895162441,0.376852724873154,0.215393831951216,0.11046416270877,0.280716472102976,-0.396677066452691,0.352585979190133,0.327874666001357,-0.0715128567899512,-0.204137843360411,0.204319090583545,-0.225254964581008,0.436825674101747,-0.514237395697721,-0.161288498089644,0.331784900844351,0.269753135646966,-0.0777841170484245,-0.370105433414509,0.29085893639324,0.311238069130703,-0.303078066892538,0.468908377920765
-0.193440703028762,0.120378017100995,-0.32336535901448,0.207364194941624,-0.198769598074556,-0.50534204330932,0.179969442300526,0.279464392245681,0.0515044058830233,0.121000741867932,0.127574826485787,0.541256726192936,0.207463566820038,0.34982878990513,-0.142012201471143,-0.444151041791885,-0.524359555258742,-0.268735855530304,0.469715721397199,-0.139723866739807,0.331119214992225,0.385471020128246,-0.474155421055354,-0.286626159926192,-0.0930931860666189,-0.248399668631204,0.399997581768065,-0.301783381532989,-0.00771574836115891,-0.180634900818362,0.583771911680832,0.13440161368939
0.132908860665828,0.452102977939352,-0.148096553267141,0.050003017593441,-0.455105269932972,0.50076797039735,-0.077276891063816,-0.135706302091566,0.0129653122847204,0.443470323355756,-0.207109296871039,0.15222294820271,-0.0184587836855629,0.437266476280787,0.366885904451543,0.532815346788212,0.413926928234407,-0.398183734077266,0.230698549074095,0.331935645124314,0.0246920813429575,-0.185914317361053,0.256176615549762,0.135347974728856,0.354829291205722,0.0965019258129511,-0.26776595205878,0.52088457363,0.527963647546546,0.0339988345439257,-0.184071835948359,0.308791422310055
0.11834499521512,0.323810272697086,-0.196850451178759,0.0469387177406107,-0.464324367000092,0.0959802058994698,-0.495446576858981,-0.417274413810832,0.474134023743704,0.435361188186031,0.354479986297628,0.304647024171462,-0.350246068124754,0.452524861382237,0.027812960503184,-0.25506116805865,-0.157992536829911,0.47932961095334,0.0237457334550217,0.431188463873482,0.31688094198617,-0.481452622088587,-0.117362916056255,-0.459379554391874,-0.303334943113665,0.461681591674213,-0.341163524629714,-0.384717363425349,-0.459169998256481,-0.527090262932303,0.102957812812214,-0.121074299425114
0.286589033466108,-0.545158749614136,-0.30419823881117,-0.132826750526097,0.020152031435422,0.321857643393821,-0.282926116725755,-0.543716343869498,-0.265355322311062,-0.399228586367699,-0.186307175751824,0.00785343226561684,0.387886062255294,0.269024428500289,0.0159295499305078,0.462013940115696,0.584268570967541,-0.435489412262918,0.25524050030262,-0.00542292601858211,0.494849580486214,-0.0669990678720407,0.136599814763408,-0.194007708070152,0.124949493102442,0.157724609817206,-0.223424598429855,-0.198931680079068,-0.602164345053552,-0.178157052004593,-0.373833240130739,0.550360787669047
-0.416794994292556,-0.0556977912118341,0.475327713978887,-0.474616470750773,-0.427595803599298,0.257127437282681,-0.51157187726907,-0.346966137530334,0.128580643639104,0.167013213334689,0.0781051890531136,0.1092111903564,0.294999969582868,0.156966987235785,0.540372152589258,0.484386615784585,-0.0691064351086663,-0.155783902475991,0.419280736871125,-0.156027353119804,0.0290159579099478,-0.0852052707563316,-0.519905795255467,-0.061942045555486,-0.0915746871513299,-0.528004318516987,-0.222080019393881,-0.49450685047959,0.518492577883052,0.152393922617887,0.392010481889239,-0.0520281370827895
-0.27015177445656,-0.0635694719975122,-0.106971415426834,-0.330267806177462,0.0539893061034332,0.428427434104449,-0.0989751553298173,0.404665858610305,0.248314083116834,0.319301178652944,0.531788822862109,-0.059363773051106,0.212775755353885,-0.107972202364171,-0.368308216033756,0.40462899752871,0.528485251336591,0.428850078609382,-0.533685642360476,0.509306684878796,-0.414509845760153,-0.257309875218569,0.137391259731428,0.0865955610281954,0.00873162603271142,0.439768721707657,0.505922079162033,0.0091686323183862,0.116616062369462,-0.146347722303983,0.276203050560346,0.321457202547646
0.410704099456706,0.486269298264366,0.453697159863392,0.142586092754868,-0.315890789617599,0.417400713602451,0.0941538217600994,0.400342086267727,-0.0941025162951095,-0.538159898905229,-0.329766251425763,0.450287257299299,-0.600594468624812,0.0333448949923196,0.0279997337233141,0.151083776524519,-0.110041706783425,0.0682242346039054,0.273086042515991,-0.344895513876815,0.123952636757651,-0.557560596501276,0.180384051397835,0.284734467488543,-0.111919365322763,-0.485600760932363,-0.506055486872323,-0.0999911902941364,-0.533364710254661,-0.47215336207535,0.177212891427379,-0.181953597141206
0.0368048879583227,-0.515977642003099,-0.0134497847044287,0.39396904033795,0.401679620090862,0.343195065522506,-0.464168536434495,0.37564897545666,0.438530419212744,0.0477798554638086,0.0872657802934673,-0.45156031986456,-0.14222589986391,-0.477882994716275,-0.560840868925153,-0.217099474129287,-0.182369167856761,0.483457640091963,-0.0562095534491205,-0.445098334536156,-0.134141676927076,0.0296014591419244,-0.0142160722960977,-0.164825014816585,-0.504486337983238,0.303165428589606,-0.369935972954629,0.131773873463449,0.194102963505583,0.127247908470943,-0.537038715856911,-0.0158596112413079
0.0189150273613945,0.395770590461631,-0.446458810482937,0.0822294687572955,-0.359649995926415,0.12872449033482,0.319228947789872,-0.131552828533434,-0.412162886575626,-0.0311764350923558,0.0989506937190889,-0.180732995469544,0.227825476821899,0.279881027390635,-0.319667752989519,0.294265285267062,0.242103018463973,-0.209401665829844,0.161953253974906,-0.105859572892666,-0.0512061329110567,-0.0861904023680429,0.481105756287285,0.470321790258171,-0.0578339153344343,-0.0957775434136068,0.523006863888537,-0.272982295715173,-0.308043527101638,0.0946815735965836,0.196622567734505,0.560012018389237
0.248391564345718,-0.31665525093674,0.114427184221579,-0.05173900817772,-0.409178626046358,0.500224178183664,0.00492649863799432,0.413719900412336,-0.026839058480986,0.331474865330927,-0.440340256492716,-0.0582391543178209,0.232102754288395,0.148844501409355,0.223508098491604,-0.280670868646601,0.436008798067017,-0.277843759026846,0.059666050515668,-0.288090000716108,0.139683261739366,-0.405261946167883,-0.361023208265536,-0.443235370461591,0.542791936184079,0.108810014240408,0.400806295351572,0.402044230076068,0.49530278467927,0.371588665464181,-0.555100484250319,0.0119101677638555
-0.0312308776667807,-0.533500037726273,-0.325810669249161,0.171190181844626,0.127641685077214,0.00435381435632378,0.376457141531989,0.122806198604023,0.442924896728962,-0.275000764282711,-0.0229985811675692,0.0955919116678472,0.0327083119080434,-0.133636231842899,-0.114817017792855,0.265138318681894,0.558912702975371,0.118259813650721,-0.0566212573805386,-0.101002084640023,0.277428318063807,0.449255535251513,-0.552234607979736,0.327645338986572,-0.404875050526677,-0.433136990874433,0.335062688049469,-0.305231409564471,0.433705891847067,-0.360536131616379,-0.472400410539707,-0.490242571435455
0.135816165470543,-0.300137687685738,-0.516938223065699,-0.0874540601283023,0.0676445173259845,-0.466465790414805,-0.430261566322583,0.0426461636267765,0.195944309599373,-0.106850332612303,-0.356528947939771,-0.191402311246612,-0.209753341944733,-0.33403077822875,0.0522466994153142,0.0306011244784246,-0.370154933111894,0.187618780874077,-0.30085013906652,0.0958688682125953,0.425768301532383,-0.240453730613242,-0.502842270229562,-0.383967436827047,-0.230049141629411,-0.0945308554212634,-0.196803526819925,0.330335438114531,0.326159959036221,-0.0119659461163476,0.0122056959907063,-0.0542132353718093
-0.0675841197818117,-0.421964789143062,0.0397246727778989,-0.412612418759771,-0.291511083791933,0.316663559596781,0.356001025790138,0.170279125589829,0.496417302283025,-0.254221027212109,-0.370204387960556,-0.37289676612004,0.341986401874994,-0.353843478428811,0.298344902272699,0.545309082436442,0.306234516307725,-0.449206922775985,-0.343108012374183,-0.407499418549447,0.478095012319738,-0.377666602451547,-0.0869056560225357,-0.217579367486201,-0.115464930446171,0.100563041137652,0.517089548121969,0.179703234333758,0.298270977653841,-0.457906392093445,-0.0477948973465549,-0.454101722308947
0.131493857556844,-0.257740110712755,-0.559306171377611,0.0503471080343492,-0.290797187294389,0.42569658584731,-0.00663119217774253,0.0679345270860111,0.441764299834713,-0.335458584654189,-0.194387341097146,-0.102854216884379,-0.472552280269481,0.219524885614465,-0.0634685544475259,0.397336784455395,0.538354538448125,0.538760666118576,0.192537510815009,-0.257346603196549,-0.345150790491302,0.37480939970371,-0.524545919330366,0.60041198129339,0.505572813003964,0.242284836604966,0.18495634509108,0.339128236676057,0.37697236283555,-0.443674792425486,0.0940934213188496,-0.243446932022832
0.0488434867934208,0.0831960300408751,-0.0693695189516014,0.339001295311954,0.395094673697637,-0.028089319323576,0.0537954785800916,-0.0350589254106795,0.217225394736677,0.402234160787119,0.264584720241127,0.19615105190221,0.0155651203293184,-0.406263246118835,0.458523595942723,-0.489282018336297,0.094644841430363,-0.424917556353579,-0.110906470140523,-0.303068507621146,0.026985489484342,0.460126510357285,-0.388343030493879,0.373386426890039,-0.378557803083038,-0.45951177920919,0.225761496375893,0.180495311307422,0.134270673885759,-0.496212544987243,0.519157493104592,0.473341884337663
0.497401691058396,-0.245891530911827,-0.490604669671823,-0.152441211792101,-0.44613401443379,0.143491985120249,-0.262332662922048,-0.438945240023383,0.294404252121821,-0.429151896147755,0.197590302202,0.301143336645742,0.486115129752327,-0.139196904267823,0.460440710629065,-0.148168551557258,-0.525097589730503,-0.372662148282242,0.48131748450722,0.533981778383211,0.34124311083012,-0.518623590639121,-0.10744671819651,0.0669240623964217,-0.240977564913491,0.393527915354962,-0.397706290247068,-0.161316292851258,0.0371171196321209,0.204320815931166,-0.366948547162766,0.265295289547716
-0.523894540971156,-0.0214791652419232,0.390371585944843,0.554976577930717,-0.291249720740442,0.328979705611472,0.0163602991372248,-0.372599923201703,0.222193231696128,0.133745301505906,-0.587975164672075,0.152533944788656,0.489415244090632,-0.558500535072401,-0.0717623207601559,0.102757406175806,0.554557689558922,0.0209126934905126,0.404553405500075,-0.314345350827639,0.288954856183497,0.48687048857796,0.426869766845113,-0.457705771820536,-0.323502881932043,0.208896024920767,-0.500724723820764,-0.399776758376073,-0.334440287140676,-0.331769154598343,0.453622964761478,-0.197556861780424
-0.295991098882816,0.210837584082632,0.497117847657556,-0.243754614120613,0.394799355259905,0.0396665246934973,0.243757163497213,-0.446666364390532,-0.517444826050199,0.407659636308822,0.485894175024149,0.0020102669778533,0.367570034961173,-0.191315386651139,0.150057185852074,-0.260054154919955,-0.354891958492497,0.538910436032572,0.562125633350835,-0.456890157070393,-0.531504396772235,-0.416031911413618,-0.17261895541023,0.458302994415057,0.328604211648328,-0.518294308851991,-0.331761616953481,-0.223342689413791,0.0236938124757864,0.670217351478734,-0.260661646996398,-0.393802876335362
-0.449654962474035,0.00730633860266493,0.247713555335806,-0.0055038490230236,0.0777287394199439,0.142779342921899,-0.0214198591933706,0.212781197069804,0.408936784009841,0.449944826209434,-0.398107513783064,0.497931842337941,-0.460006750080009,-0.177308293364127,-0.0459260481743701,-0.426828841998721,0.0984313153733774,-0.185910472048197,-0.568204420471705,-0.562285927360845,0.500353593048026,0.0864632005382969,0.133427071589692,-0.134605310162463,0.403527369216449,0.0993942541472068,-0.011140877527209,-0.0699397974330243,0.18652240195135,0.210958672663432,0.461681703076134,-0.485156509285016
0.161326468591113,-0.0784054093326847,-0.537237277113829,-0.289865420842274,0.210222580094565,-0.409721558188815,-0.26358607812302,0.237115100446248,-0.170791045955687,0.457468863608755,-0.386002332682645,0.509357086824423,0.0879914934520246,-0.126067325226039,-0.133492641745654,-0.446417088904618,-0.292877102194671,-0.413099452910407,-0.493152703152142,0.221141840431972,0.419278055305406,-0.47374444104994,-0.121218064866058,0.308544462635556,-0.252529736640624,0.324114559943384,0.501137627628568,0.333524673294042,-0.499838926890254,0.339356638945806,0.409782949879875,0.15740578651896
0.00897036001277102,0.130489922766703,0.516492419869667,0.254562727970827,-0.438415472761304,0.24038450286605,0.511179935174773,-0.120894335923783,-0.391059792392842,-0.0703382570568314,0.523305948830348,0.564101069982316,-0.519296542810173,0.505460014134502,0.216778177569084,-0.189281740940341,0.24533887440527,-0.396512873909917,0.436148053136581,-0.199775127624114,-0.151256123071532,-0.36826440590683,0.0779103375422219,-0.313986150439121,-0.257246003265325,0.327551368869897,0.540066184016686,0.171700660958769,0.305767043982409,-0.275079146054812,0.427075975399446,0.473552340736754
